{"learner":{"attributes":{},"feature_names":[],"feature_types":[],"gradient_booster":{"model":{"gbtree_model_param":{"num_parallel_tree":"1","num_trees":"1500"},"iteration_indptr":[0,2,4,6,8,10,12,14,16,18,20,22,24,26,28,30,32,34,36,38,40,42,44,46,48,50,52,54,56,58,60,62,64,66,68,70,72,74,76,78,80,82,84,86,88,90,92,94,96,98,100,102,104,106,108,110,112,114,116,118,120,122,124,126,128,130,132,134,136,138,140,142,144,146,148,150,152,154,156,158,160,162,164,166,168,170,172,174,176,178,180,182,184,186,188,190,192,194,196,198,200,202,204,206,208,210,212,214,216,218,220,222,224,226,228,230,232,234,236,238,240,242,244,246,248,250,252,254,256,258,260,262,264,266,268,270,272,274,276,278,280,282,284,286,288,290,292,294,296,298,300,302,304,306,308,310,312,314,316,318,320,322,324,326,328,330,332,334,336,338,340,342,344,346,348,350,352,354,356,358,360,362,364,366,368,370,372,374,376,378,380,382,384,386,388,390,392,394,396,398,400,402,404,406,408,410,412,414,416,418,420,422,424,426,428,430,432,434,436,438,440,442,444,446,448,450,452,454,456,458,460,462,464,466,468,470,472,474,476,478,480,482,484,486,488,490,492,494,496,498,500,502,504,506,508,510,512,514,516,518,520,522,524,526,528,530,532,534,536,538,540,542,544,546,548,550,552,554,556,558,560,562,564,566,568,570,572,574,576,578,580,582,584,586,588,590,592,594,596,598,600,602,604,606,608,610,612,614,616,618,620,622,624,626,628,630,632,634,636,638,640,642,644,646,648,650,652,654,656,658,660,662,664,666,668,670,672,674,676,678,680,682,684,686,688,690,692,694,696,698,700,702,704,706,708,710,712,714,716,718,720,722,724,726,728,730,732,734,736,738,740,742,744,746,748,750,752,754,756,758,760,762,764,766,768,770,772,774,776,778,780,782,784,786,788,790,792,794,796,798,800,802,804,806,808,810,812,814,816,818,820,822,824,826,828,830,832,834,836,838,840,842,844,846,848,850,852,854,856,858,860,862,864,866,868,870,872,874,876,878,880,882,884,886,888,890,892,894,896,898,900,902,904,906,908,910,912,914,916,918,920,922,924,926,928,930,932,934,936,938,940,942,944,946,948,950,952,954,956,958,960,962,964,966,968,970,972,974,976,978,980,982,984,986,988,990,992,994,996,998,1000,1002,1004,1006,1008,1010,1012,1014,1016,1018,1020,1022,1024,1026,1028,1030,1032,1034,1036,1038,1040,1042,1044,1046,1048,1050,1052,1054,1056,1058,1060,1062,1064,1066,1068,1070,1072,1074,1076,1078,1080,1082,1084,1086,1088,1090,1092,1094,1096,1098,1100,1102,1104,1106,1108,1110,1112,1114,1116,1118,1120,1122,1124,1126,1128,1130,1132,1134,1136,1138,1140,1142,1144,1146,1148,1150,1152,1154,1156,1158,1160,1162,1164,1166,1168,1170,1172,1174,1176,1178,1180,1182,1184,1186,1188,1190,1192,1194,1196,1198,1200,1202,1204,1206,1208,1210,1212,1214,1216,1218,1220,1222,1224,1226,1228,1230,1232,1234,1236,1238,1240,1242,1244,1246,1248,1250,1252,1254,1256,1258,1260,1262,1264,1266,1268,1270,1272,1274,1276,1278,1280,1282,1284,1286,1288,1290,1292,1294,1296,1298,1300,1302,1304,1306,1308,1310,1312,1314,1316,1318,1320,1322,1324,1326,1328,1330,1332,1334,1336,1338,1340,1342,1344,1346,1348,1350,1352,1354,1356,1358,1360,1362,1364,1366,1368,1370,1372,1374,1376,1378,1380,1382,1384,1386,1388,1390,1392,1394,1396,1398,1400,1402,1404,1406,1408,1410,1412,1414,1416,1418,1420,1422,1424,1426,1428,1430,1432,1434,1436,1438,1440,1442,1444,1446,1448,1450,1452,1454,1456,1458,1460,1462,1464,1466,1468,1470,1472,1474,1476,1478,1480,1482,1484,1486,1488,1490,1492,1494,1496,1498,1500],"tree_info":[0,1,0,1,0,1,0,1,0,1,0,1,0,1,0,1,0,1,0,1,0,1,0,1,0,1,0,1,0,1,0,1,0,1,0,1,0,1,0,1,0,1,0,1,0,1,0,1,0,1,0,1,0,1,0,1,0,1,0,1,0,1,0,1,0,1,0,1,0,1,0,1,0,1,0,1,0,1,0,1,0,1,0,1,0,1,0,1,0,1,0,1,0,1,0,1,0,1,0,1,0,1,0,1,0,1,0,1,0,1,0,1,0,1,0,1,0,1,0,1,0,1,0,1,0,1,0,1,0,1,0,1,0,1,0,1,0,1,0,1,0,1,0,1,0,1,0,1,0,1,0,1,0,1,0,1,0,1,0,1,0,1,0,1,0,1,0,1,0,1,0,1,0,1,0,1,0,1,0,1,0,1,0,1,0,1,0,1,0,1,0,1,0,1,0,1,0,1,0,1,0,1,0,1,0,1,0,1,0,1,0,1,0,1,0,1,0,1,0,1,0,1,0,1,0,1,0,1,0,1,0,1,0,1,0,1,0,1,0,1,0,1,0,1,0,1,0,1,0,1,0,1,0,1,0,1,0,1,0,1,0,1,0,1,0,1,0,1,0,1,0,1,0,1,0,1,0,1,0,1,0,1,0,1,0,1,0,1,0,1,0,1,0,1,0,1,0,1,0,1,0,1,0,1,0,1,0,1,0,1,0,1,0,1,0,1,0,1,0,1,0,1,0,1,0,1,0,1,0,1,0,1,0,1,0,1,0,1,0,1,0,1,0,1,0,1,0,1,0,1,0,1,0,1,0,1,0,1,0,1,0,1,0,1,0,1,0,1,0,1,0,1,0,1,0,1,0,1,0,1,0,1,0,1,0,1,0,1,0,1,0,1,0,1,0,1,0,1,0,1,0,1,0,1,0,1,0,1,0,1,0,1,0,1,0,1,0,1,0,1,0,1,0,1,0,1,0,1,0,1,0,1,0,1,0,1,0,1,0,1,0,1,0,1,0,1,0,1,0,1,0,1,0,1,0,1,0,1,0,1,0,1,0,1,0,1,0,1,0,1,0,1,0,1,0,1,0,1,0,1,0,1,0,1,0,1,0,1,0,1,0,1,0,1,0,1,0,1,0,1,0,1,0,1,0,1,0,1,0,1,0,1,0,1,0,1,0,1,0,1,0,1,0,1,0,1,0,1,0,1,0,1,0,1,0,1,0,1,0,1,0,1,0,1,0,1,0,1,0,1,0,1,0,1,0,1,0,1,0,1,0,1,0,1,0,1,0,1,0,1,0,1,0,1,0,1,0,1,0,1,0,1,0,1,0,1,0,1,0,1,0,1,0,1,0,1,0,1,0,1,0,1,0,1,0,1,0,1,0,1,0,1,0,1,0,1,0,1,0,1,0,1,0,1,0,1,0,1,0,1,0,1,0,1,0,1,0,1,0,1,0,1,0,1,0,1,0,1,0,1,0,1,0,1,0,1,0,1,0,1,0,1,0,1,0,1,0,1,0,1,0,1,0,1,0,1,0,1,0,1,0,1,0,1,0,1,0,1,0,1,0,1,0,1,0,1,0,1,0,1,0,1,0,1,0,1,0,1,0,1,0,1,0,1,0,1,0,1,0,1,0,1,0,1,0,1,0,1,0,1,0,1,0,1,0,1,0,1,0,1,0,1,0,1,0,1,0,1,0,1,0,1,0,1,0,1,0,1,0,1,0,1,0,1,0,1,0,1,0,1,0,1,0,1,0,1,0,1,0,1,0,1,0,1,0,1,0,1,0,1,0,1,0,1,0,1,0,1,0,1,0,1,0,1,0,1,0,1,0,1,0,1,0,1,0,1,0,1,0,1,0,1,0,1,0,1,0,1,0,1,0,1,0,1,0,1,0,1,0,1,0,1,0,1,0,1,0,1,0,1,0,1,0,1,0,1,0,1,0,1,0,1,0,1,0,1,0,1,0,1,0,1,0,1,0,1,0,1,0,1,0,1,0,1,0,1,0,1,0,1,0,1,0,1,0,1,0,1,0,1,0,1,0,1,0,1,0,1,0,1,0,1,0,1,0,1,0,1,0,1,0,1,0,1,0,1,0,1,0,1,0,1,0,1,0,1,0,1,0,1,0,1,0,1,0,1,0,1,0,1,0,1,0,1,0,1,0,1,0,1,0,1,0,1,0,1,0,1,0,1,0,1,0,1,0,1,0,1,0,1,0,1,0,1,0,1,0,1,0,1,0,1,0,1,0,1,0,1,0,1,0,1,0,1,0,1,0,1,0,1,0,1,0,1,0,1,0,1,0,1,0,1,0,1,0,1,0,1,0,1,0,1,0,1,0,1,0,1,0,1,0,1,0,1,0,1,0,1,0,1,0,1,0,1,0,1,0,1,0,1,0,1,0,1,0,1,0,1,0,1,0,1,0,1,0,1,0,1,0,1,0,1,0,1,0,1,0,1,0,1,0,1,0,1,0,1,0,1,0,1,0,1,0,1,0,1,0,1,0,1,0,1,0,1,0,1,0,1,0,1,0,1,0,1,0,1,0,1,0,1,0,1,0,1,0,1,0,1,0,1,0,1,0,1,0,1,0,1,0,1,0,1,0,1,0,1,0,1,0,1,0,1,0,1,0,1,0,1,0,1,0,1,0,1,0,1,0,1,0,1,0,1,0,1,0,1,0,1,0,1,0,1,0,1,0,1,0,1,0,1,0,1,0,1,0,1,0,1,0,1,0,1,0,1,0,1,0,1,0,1,0,1,0,1,0,1,0,1,0,1,0,1,0,1,0,1,0,1,0,1,0,1,0,1,0,1,0,1,0,1,0,1,0,1,0,1,0,1,0,1,0,1,0,1,0,1,0,1,0,1,0,1,0,1,0,1,0,1,0,1,0,1,0,1,0,1,0,1,0,1,0,1,0,1,0,1,0,1,0,1,0,1,0,1,0,1,0,1,0,1,0,1,0,1,0,1,0,1,0,1,0,1,0,1,0,1,0,1,0,1,0,1,0,1,0,1,0,1,0,1,0,1,0,1,0,1,0,1,0,1,0,1,0,1,0,1,0,1,0,1,0,1,0,1,0,1,0,1,0,1,0,1,0,1,0,1,0,1,0,1,0,1,0,1,0,1,0,1,0,1,0,1,0,1,0,1,0,1,0,1,0,1,0,1,0,1,0,1,0,1,0,1,0,1,0,1,0,1,0,1,0,1,0,1,0,1,0,1,0,1,0,1,0,1,0,1,0,1,0,1,0,1,0,1,0,1,0,1,0,1,0,1,0,1,0,1,0,1,0,1,0,1,0,1,0,1,0,1,0,1,0,1,0,1,0,1,0,1,0,1,0,1,0,1,0,1,0,1,0,1,0,1,0,1,0,1,0,1,0,1],"trees":[{"base_weights":[-1.5201014E-1,-3.5846624E-1,4.8079927E-2,-5.429769E-1,-2.0047805E-1,-2.0269059E-1,1.8190522E-1,-4.5263157E-3,-6.9593955E-3,-3.2455637E-3,-6.491885E-4,6.6666666E-4,-3.428766E-3,3.8189532E-3,7.9537235E-4],"categories":[],"categories_nodes":[],"categories_segments":[],"categories_sizes":[],"default_left":[0,0,0,0,0,0,0,0,0,0,0,0,0,0,0],"id":0,"left_children":[1,3,5,7,9,11,13,-1,-1,-1,-1,-1,-1,-1,-1],"loss_changes":[2.6049628E2,9.035977E1,1.0752774E2,1.9460632E1,2.8127129E1,4.2125393E1,4.2736855E1,0E0,0E0,0E0,0E0,0E0,0E0,0E0,0E0],"parents":[2147483647,0,0,1,1,2,2,3,3,4,4,5,5,6,6],"right_children":[2,4,6,8,10,12,14,-1,-1,-1,-1,-1,-1,-1,-1],"split_conditions":[1.5E1,1.04E1,-1.5E0,2.3E1,8E0,-4.8E0,9.6E0,-4.5263157E-3,-6.9593955E-3,-3.2455637E-3,-6.491885E-4,6.6666666E-4,-3.428766E-3,3.8189532E-3,7.9537235E-4],"split_indices":[51,109,77,80,51,25,108,0,0,0,0,0,0,0,0],"split_type":[0,0,0,0,0,0,0,0,0,0,0,0,0,0,0],"sum_hessian":[6.3045E3,3.1025E3,3.202E3,1.43E3,1.6725E3,1.114E3,2.088E3,9.015E2,5.285E2,8.725E2,8E2,3.815E2,7.325E2,7.06E2,1.382E3],"tree_param":{"num_deleted":"0","num_feature":"110","num_nodes":"15","size_leaf_vector":"1"}},{"base_weights":[1.5201014E-1,3.5846624E-1,-4.8079927E-2,5.429769E-1,2.0047805E-1,2.0269059E-1,-1.8190522E-1,4.5263157E-3,6.9593955E-3,3.2455637E-3,6.491885E-4,-6.6666666E-4,3.428766E-3,-3.8189532E-3,-7.9537235E-4],"categories":[],"categories_nodes":[],"categories_segments":[],"categories_sizes":[],"default_left":[0,0,0,0,0,0,0,0,0,0,0,0,0,0,0],"id":1,"left_children":[1,3,5,7,9,11,13,-1,-1,-1,-1,-1,-1,-1,-1],"loss_changes":[2.6049628E2,9.035977E1,1.0752774E2,1.9460632E1,2.8127129E1,4.2125393E1,4.2736855E1,0E0,0E0,0E0,0E0,0E0,0E0,0E0,0E0],"parents":[2147483647,0,0,1,1,2,2,3,3,4,4,5,5,6,6],"right_children":[2,4,6,8,10,12,14,-1,-1,-1,-1,-1,-1,-1,-1],"split_conditions":[1.5E1,1.04E1,-1.5E0,2.3E1,8E0,-4.8E0,9.6E0,4.5263157E-3,6.9593955E-3,3.2455637E-3,6.491885E-4,-6.6666666E-4,3.428766E-3,-3.8189532E-3,-7.9537235E-4],"split_indices":[51,109,77,80,51,25,108,0,0,0,0,0,0,0,0],"split_type":[0,0,0,0,0,0,0,0,0,0,0,0,0,0,0],"sum_hessian":[6.3045E3,3.1025E3,3.202E3,1.43E3,1.6725E3,1.114E3,2.088E3,9.015E2,5.285E2,8.725E2,8E2,3.815E2,7.325E2,7.06E2,1.382E3],"tree_param":{"num_deleted":"0","num_feature":"110","num_nodes":"15","size_leaf_vector":"1"}},{"base_weights":[-1.5049395E-1,-3.5489267E-1,4.760001E-2,-5.375717E-1,-1.984767E-1,-2.0066778E-1,1.8008937E-1,-4.481194E-3,-6.890267E-3,-3.213179E-3,-6.427047E-4,6.6001696E-4,-3.3945655E-3,3.7808737E-3,7.87425E-4],"categories":[],"categories_nodes":[],"categories_segments":[],"categories_sizes":[],"default_left":[0,0,0,0,0,0,0,0,0,0,0,0,0,0,0],"id":2,"left_children":[1,3,5,7,9,11,13,-1,-1,-1,-1,-1,-1,-1,-1],"loss_changes":[2.5532451E2,8.8571014E1,1.0539125E2,1.907782E1,2.7568604E1,4.1289047E1,4.188887E1,0E0,0E0,0E0,0E0,0E0,0E0,0E0,0E0],"parents":[2147483647,0,0,1,1,2,2,3,3,4,4,5,5,6,6],"right_children":[2,4,6,8,10,12,14,-1,-1,-1,-1,-1,-1,-1,-1],"split_conditions":[1.5E1,1.04E1,-1.5E0,2.3E1,8E0,-4.8E0,9.6E0,-4.481194E-3,-6.890267E-3,-3.213179E-3,-6.427047E-4,6.6001696E-4,-3.3945655E-3,3.7808737E-3,7.87425E-4],"split_indices":[51,109,77,80,51,25,108,0,0,0,0,0,0,0,0],"split_type":[0,0,0,0,0,0,0,0,0,0,0,0,0,0,0],"sum_hessian":[6.3044263E3,3.1024465E3,3.20198E3,1.4299559E3,1.6724905E3,1.1139912E3,2.0879888E3,9.0148157E2,5.2847437E2,8.7249084E2,7.999997E2,3.8149985E2,7.3249133E2,7.059897E2,1.3819991E3],"tree_param":{"num_deleted":"0","num_feature":"110","num_nodes":"15","size_leaf_vector":"1"}},{"base_weights":[1.5049396E-1,3.548927E-1,-4.7599994E-2,5.3757185E-1,1.9847669E-1,2.0066775E-1,-1.8008934E-1,4.481195E-3,6.890268E-3,3.2131788E-3,6.427047E-4,-6.600182E-4,3.3945658E-3,-3.7808728E-3,-7.87425E-4],"categories":[],"categories_nodes":[],"categories_segments":[],"categories_sizes":[],"default_left":[0,0,0,0,0,0,0,0,0,0,0,0,0,0,0],"id":3,"left_children":[1,3,5,7,9,11,13,-1,-1,-1,-1,-1,-1,-1,-1],"loss_changes":[2.5532458E2,8.8570984E1,1.05391235E2,1.907788E1,2.7568604E1,4.128907E1,4.1888847E1,0E0,0E0,0E0,0E0,0E0,0E0,0E0,0E0],"parents":[2147483647,0,0,1,1,2,2,3,3,4,4,5,5,6,6],"right_children":[2,4,6,8,10,12,14,-1,-1,-1,-1,-1,-1,-1,-1],"split_conditions":[1.5E1,1.04E1,-1.5E0,2.3E1,8E0,-4.8E0,9.6E0,4.481195E-3,6.890268E-3,3.2131788E-3,6.427047E-4,-6.600182E-4,3.3945658E-3,-3.7808728E-3,-7.87425E-4],"split_indices":[51,109,77,80,51,25,108,0,0,0,0,0,0,0,0],"split_type":[0,0,0,0,0,0,0,0,0,0,0,0,0,0,0],"sum_hessian":[6.3044263E3,3.1024463E3,3.20198E3,1.4299559E3,1.6724905E3,1.1139912E3,2.0879888E3,9.014815E2,5.2847437E2,8.724908E2,7.999997E2,3.8149985E2,7.324914E2,7.0598975E2,1.3819991E3],"tree_param":{"num_deleted":"0","num_feature":"110","num_nodes":"15","size_leaf_vector":"1"}},{"base_weights":[-1.4899632E-1,-3.5136676E-1,4.7125474E-2,-5.480406E-1,-2.0883986E-1,-1.9866815E-1,1.7829351E-1,-4.5812987E-3,-6.8504587E-3,-2.9216516E-3,-1.1903746E-4,6.534357E-4,-3.3607825E-3,3.7432795E-3,7.795583E-4],"categories":[],"categories_nodes":[],"categories_segments":[],"categories_sizes":[],"default_left":[0,0,0,0,0,0,0,0,0,0,0,0,0,0,0],"id":4,"left_children":[1,3,5,7,9,11,13,-1,-1,-1,-1,-1,-1,-1,-1],"loss_changes":[2.5026556E2,8.687482E1,1.0329845E2,1.5740967E1,2.954969E1,4.047054E1,4.1059837E1,0E0,0E0,0E0,0E0,0E0,0E0,0E0,0E0],"parents":[2147483647,0,0,1,1,2,2,3,3,4,4,5,5,6,6],"right_children":[2,4,6,8,10,12,14,-1,-1,-1,-1,-1,-1,-1,-1],"split_conditions":[1.5E1,1.03E1,-1.5E0,2.3E1,5.1E0,-4.8E0,9.6E0,-4.5812987E-3,-6.8504587E-3,-2.9216516E-3,-1.1903746E-4,6.534357E-4,-3.3607825E-3,3.7432795E-3,7.795583E-4],"split_indices":[51,109,77,80,77,25,108,0,0,0,0,0,0,0,0],"split_type":[0,0,0,0,0,0,0,0,0,0,0,0,0,0,0],"sum_hessian":[6.304209E3,3.1022878E3,3.2019211E3,1.3023374E3,1.7999503E3,1.1139652E3,2.0879558E3,7.88936E2,5.134015E2,1.2644623E3,5.35488E2,3.8149933E2,7.3246594E2,7.059592E2,1.3819966E3],"tree_param":{"num_deleted":"0","num_feature":"110","num_nodes":"15","size_leaf_vector":"1"}},{"base_weights":[1.4899635E-1,3.5136676E-1,-4.7125414E-2,5.4804057E-1,2.0883991E-1,1.9866821E-1,-1.7829345E-1,4.5812977E-3,6.8504587E-3,2.9216518E-3,1.19037904E-4,-6.534357E-4,3.3607837E-3,-3.7432795E-3,-7.7955745E-4],"categories":[],"categories_nodes":[],"categories_segments":[],"categories_sizes":[],"default_left":[0,0,0,0,0,0,0,0,0,0,0,0,0,0,0],"id":5,"left_children":[1,3,5,7,9,11,13,-1,-1,-1,-1,-1,-1,-1,-1],"loss_changes":[2.502655E2,8.687479E1,1.03298454E2,1.5740997E1,2.9549698E1,4.047056E1,4.105986E1,0E0,0E0,0E0,0E0,0E0,0E0,0E0,0E0],"parents":[2147483647,0,0,1,1,2,2,3,3,4,4,5,5,6,6],"right_children":[2,4,6,8,10,12,14,-1,-1,-1,-1,-1,-1,-1,-1],"split_conditions":[1.5E1,1.03E1,-1.5E0,2.3E1,5.1E0,-4.8E0,9.6E0,4.5812977E-3,6.8504587E-3,2.9216518E-3,1.19037904E-4,-6.534357E-4,3.3607837E-3,-3.7432795E-3,-7.7955745E-4],"split_indices":[51,109,77,80,77,25,108,0,0,0,0,0,0,0,0],"split_type":[0,0,0,0,0,0,0,0,0,0,0,0,0,0,0],"sum_hessian":[6.304209E3,3.1022878E3,3.2019211E3,1.3023375E3,1.7999503E3,1.1139652E3,2.0879558E3,7.88936E2,5.134015E2,1.2644623E3,5.35488E2,3.8149933E2,7.324659E2,7.059592E2,1.3819966E3],"tree_param":{"num_deleted":"0","num_feature":"110","num_nodes":"15","size_leaf_vector":"1"}},{"base_weights":[-1.4751658E-1,1.0944664E-1,-2.9913345E-1,-1.4239879E-1,2.2794364E-1,-4.8668197E-1,-1.3825382E-1,1.1392977E-3,-2.8656193E-3,3.9893133E-3,1.0769306E-3,-4.0518893E-3,-6.201003E-3,-3.168E-3,-1.5550727E-4],"categories":[],"categories_nodes":[],"categories_segments":[],"categories_sizes":[],"default_left":[0,0,0,0,0,0,0,0,0,0,0,0,0,0,0],"id":6,"left_children":[1,3,5,7,9,11,13,-1,-1,-1,-1,-1,-1,-1,-1],"loss_changes":[2.4566998E2,6.9875534E1,1.1958295E2,2.7727173E1,3.2688812E1,1.9652191E1,4.6788994E1,0E0,0E0,0E0,0E0,0E0,0E0,0E0,0E0],"parents":[2147483647,0,0,1,1,2,2,3,3,4,4,5,5,6,6],"right_children":[2,4,6,8,10,12,14,-1,-1,-1,-1,-1,-1,-1,-1],"split_conditions":[4.59E-1,-2E0,1.04E1,9.5E0,9.6E0,2.3E1,8E0,1.1392977E-3,-2.8656193E-3,3.9893133E-3,1.0769306E-3,-4.0518893E-3,-6.201003E-3,-3.168E-3,-1.5550727E-4],"split_indices":[3,77,109,108,108,80,51,0,0,0,0,0,0,0,0],"split_type":[0,0,0,0,0,0,0,0,0,0,0,0,0,0,0],"sum_hessian":[6.303864E3,2.339356E3,3.9645076E3,7.4844995E2,1.590906E3,1.829596E3,2.1349116E3,2.6949158E2,4.7895837E2,6.559189E2,9.349871E2,1.138331E3,6.9126495E2,8.689355E2,1.2659761E3],"tree_param":{"num_deleted":"0","num_feature":"110","num_nodes":"15","size_leaf_vector":"1"}},{"base_weights":[1.4751658E-1,-1.0944666E-1,2.9913345E-1,1.423988E-1,-2.2794367E-1,4.8668194E-1,1.3825384E-1,-1.1392981E-3,2.86562E-3,-3.989314E-3,-1.0769306E-3,4.0518893E-3,6.2010023E-3,3.1679997E-3,1.5550773E-4],"categories":[],"categories_nodes":[],"categories_segments":[],"categories_sizes":[],"default_left":[0,0,0,0,0,0,0,0,0,0,0,0,0,0,0],"id":7,"left_children":[1,3,5,7,9,11,13,-1,-1,-1,-1,-1,-1,-1,-1],"loss_changes":[2.4566998E2,6.987555E1,1.19582886E2,2.7727184E1,3.2688828E1,1.9652222E1,4.6788956E1,0E0,0E0,0E0,0E0,0E0,0E0,0E0,0E0],"parents":[2147483647,0,0,1,1,2,2,3,3,4,4,5,5,6,6],"right_children":[2,4,6,8,10,12,14,-1,-1,-1,-1,-1,-1,-1,-1],"split_conditions":[4.59E-1,-2E0,1.04E1,9.5E0,9.6E0,2.3E1,8E0,-1.1392981E-3,2.86562E-3,-3.989314E-3,-1.0769306E-3,4.0518893E-3,6.2010023E-3,3.1679997E-3,1.5550773E-4],"split_indices":[3,77,109,108,108,80,51,0,0,0,0,0,0,0,0],"split_type":[0,0,0,0,0,0,0,0,0,0,0,0,0,0,0],"sum_hessian":[6.3038633E3,2.339356E3,3.9645076E3,7.484499E2,1.590906E3,1.829596E3,2.1349116E3,2.6949158E2,4.7895834E2,6.559189E2,9.349871E2,1.138331E3,6.9126495E2,8.689355E2,1.2659761E3],"tree_param":{"num_deleted":"0","num_feature":"110","num_nodes":"15","size_leaf_vector":"1"}},{"base_weights":[-1.460534E-1,-3.4484848E-1,4.6581715E-2,-5.3800607E-1,-2.0490889E-1,-1.946349E-1,1.7530303E-1,-4.4977483E-3,-6.7249173E-3,-2.873235E-3,-1.0138449E-4,6.494025E-4,-3.29754E-3,3.6733474E-3,7.702877E-4],"categories":[],"categories_nodes":[],"categories_segments":[],"categories_sizes":[],"default_left":[0,0,0,0,0,0,0,0,0,0,0,0,0,0,0],"id":8,"left_children":[1,3,5,7,9,11,13,-1,-1,-1,-1,-1,-1,-1,-1],"loss_changes":[2.4144337E2,8.375757E1,9.947701E1,1.515741E1,2.8903946E1,3.9123703E1,3.9391693E1,0E0,0E0,0E0,0E0,0E0,0E0,0E0,0E0],"parents":[2147483647,0,0,1,1,2,2,3,3,4,4,5,5,6,6],"right_children":[2,4,6,8,10,12,14,-1,-1,-1,-1,-1,-1,-1,-1],"split_conditions":[1.5E1,1.03E1,-1.5E0,2.3E1,5.1E0,-4.8E0,9.6E0,-4.4977483E-3,-6.7249173E-3,-2.873235E-3,-1.0138449E-4,6.494025E-4,-3.29754E-3,3.6733474E-3,7.702877E-4],"split_indices":[51,109,77,80,77,25,108,0,0,0,0,0,0,0,0],"split_type":[0,0,0,0,0,0,0,0,0,0,0,0,0,0,0],"sum_hessian":[6.303422E3,3.1017234E3,3.2016985E3,1.3018899E3,1.7998334E3,1.113865E3,2.0878335E3,7.887584E2,5.1313153E2,1.2643602E3,5.3547314E2,3.814969E2,7.3236816E2,7.058457E2,1.3819878E3],"tree_param":{"num_deleted":"0","num_feature":"110","num_nodes":"15","size_leaf_vector":"1"}},{"base_weights":[1.4605336E-1,3.4484842E-1,-4.6581738E-2,5.3800595E-1,2.0490886E-1,1.946349E-1,-1.7530306E-1,4.497747E-3,6.7249173E-3,2.873235E-3,1.01383506E-4,-6.494019E-4,3.2975397E-3,-3.6733474E-3,-7.702881E-4],"categories":[],"categories_nodes":[],"categories_segments":[],"categories_sizes":[],"default_left":[0,0,0,0,0,0,0,0,0,0,0,0,0,0,0],"id":9,"left_children":[1,3,5,7,9,11,13,-1,-1,-1,-1,-1,-1,-1,-1],"loss_changes":[2.4144331E2,8.375757E1,9.947703E1,1.515741E1,2.8903969E1,3.912368E1,3.93917E1,0E0,0E0,0E0,0E0,0E0,0E0,0E0,0E0],"parents":[2147483647,0,0,1,1,2,2,3,3,4,4,5,5,6,6],"right_children":[2,4,6,8,10,12,14,-1,-1,-1,-1,-1,-1,-1,-1],"split_conditions":[1.5E1,1.03E1,-1.5E0,2.3E1,5.1E0,-4.8E0,9.6E0,4.497747E-3,6.7249173E-3,2.873235E-3,1.01383506E-4,-6.494019E-4,3.2975397E-3,-3.6733474E-3,-7.702881E-4],"split_indices":[51,109,77,80,77,25,108,0,0,0,0,0,0,0,0],"split_type":[0,0,0,0,0,0,0,0,0,0,0,0,0,0,0],"sum_hessian":[6.303422E3,3.1017234E3,3.2016985E3,1.3018899E3,1.7998334E3,1.113865E3,2.0878335E3,7.887584E2,5.1313153E2,1.2643602E3,5.3547314E2,3.814969E2,7.3236816E2,7.058457E2,1.3819878E3],"tree_param":{"num_deleted":"0","num_feature":"110","num_nodes":"15","size_leaf_vector":"1"}},{"base_weights":[-1.4460856E-1,1.07772894E-1,-2.93538E-1,-1.393558E-1,2.2405155E-1,-4.7777694E-1,-1.3554585E-1,1.1317077E-3,-2.813978E-3,4.0629897E-3,1.1549619E-3,-3.9790547E-3,-6.085841E-3,-3.1165252E-3,-1.4531739E-4],"categories":[],"categories_nodes":[],"categories_segments":[],"categories_sizes":[],"default_left":[0,0,0,0,0,0,0,0,0,0,0,0,0,0,0],"id":10,"left_children":[1,3,5,7,9,11,13,-1,-1,-1,-1,-1,-1,-1,-1],"loss_changes":[2.3697389E2,6.7276695E1,1.1534097E2,2.6911734E1,3.1444092E1,1.8876404E1,4.551189E1,0E0,0E0,0E0,0E0,0E0,0E0,0E0,0E0],"parents":[2147483647,0,0,1,1,2,2,3,3,4,4,5,5,6,6],"right_children":[2,4,6,8,10,12,14,-1,-1,-1,-1,-1,-1,-1,-1],"split_conditions":[4.59E-1,-2E0,1.04E1,9.5E0,9.5E0,2.3E1,8E0,1.1317077E-3,-2.813978E-3,4.0629897E-3,1.1549619E-3,-3.9790547E-3,-6.085841E-3,-3.1165252E-3,-1.4531739E-4],"split_indices":[3,77,109,108,108,80,51,0,0,0,0,0,0,0,0],"split_type":[0,0,0,0,0,0,0,0,0,0,0,0,0,0,0],"sum_hessian":[6.30283E3,2.3391294E3,3.9637004E3,7.483826E2,1.5907468E3,1.8289215E3,2.1347788E3,2.6948584E2,4.788968E2,5.927947E2,9.979522E2,1.1380592E3,6.9086237E2,8.6883093E2,1.265948E3],"tree_param":{"num_deleted":"0","num_feature":"110","num_nodes":"15","size_leaf_vector":"1"}},{"base_weights":[1.4460857E-1,-1.077729E-1,2.9353803E-1,1.393558E-1,-2.2405156E-1,4.7777694E-1,1.3554588E-1,-1.1317077E-3,2.813978E-3,-4.062989E-3,-1.1549626E-3,3.9790547E-3,6.085841E-3,3.1165262E-3,1.4531738E-4],"categories":[],"categories_nodes":[],"categories_segments":[],"categories_sizes":[],"default_left":[0,0,0,0,0,0,0,0,0,0,0,0,0,0,0],"id":11,"left_children":[1,3,5,7,9,11,13,-1,-1,-1,-1,-1,-1,-1,-1],"loss_changes":[2.3697394E2,6.7276695E1,1.1534094E2,2.6911732E1,3.1444061E1,1.8876404E1,4.5511913E1,0E0,0E0,0E0,0E0,0E0,0E0,0E0,0E0],"parents":[2147483647,0,0,1,1,2,2,3,3,4,4,5,5,6,6],"right_children":[2,4,6,8,10,12,14,-1,-1,-1,-1,-1,-1,-1,-1],"split_conditions":[4.59E-1,-2E0,1.04E1,9.5E0,9.5E0,2.3E1,8E0,-1.1317077E-3,2.813978E-3,-4.062989E-3,-1.1549626E-3,3.9790547E-3,6.085841E-3,3.1165262E-3,1.4531738E-4],"split_indices":[3,77,109,108,108,80,51,0,0,0,0,0,0,0,0],"split_type":[0,0,0,0,0,0,0,0,0,0,0,0,0,0,0],"sum_hessian":[6.30283E3,2.3391294E3,3.9637004E3,7.483826E2,1.5907468E3,1.8289215E3,2.1347788E3,2.6948584E2,4.788968E2,5.927947E2,9.9795215E2,1.1380592E3,6.908623E2,8.6883093E2,1.265948E3],"tree_param":{"num_deleted":"0","num_feature":"110","num_nodes":"15","size_leaf_vector":"1"}},{"base_weights":[-1.4317967E-1,-3.3848855E-1,4.6043865E-2,-5.282666E-1,-2.0105898E-1,-1.9068825E-1,1.7236502E-1,-4.4163303E-3,-6.6037998E-3,-2.8258003E-3,-8.4212355E-5,6.4544607E-4,-3.2357513E-3,3.606056E-3,7.6053996E-4],"categories":[],"categories_nodes":[],"categories_segments":[],"categories_sizes":[],"default_left":[0,0,0,0,0,0,0,0,0,0,0,0,0,0,0],"id":12,"left_children":[1,3,5,7,9,11,13,-1,-1,-1,-1,-1,-1,-1,-1],"loss_changes":[2.3296133E2,8.0792694E1,9.579621E1,1.4612305E1,2.827504E1,3.782817E1,3.7838745E1,0E0,0E0,0E0,0E0,0E0,0E0,0E0,0E0],"parents":[2147483647,0,0,1,1,2,2,3,3,4,4,5,5,6,6],"right_children":[2,4,6,8,10,12,14,-1,-1,-1,-1,-1,-1,-1,-1],"split_conditions":[1.5E1,1.03E1,-1.5E0,2.3E1,5.1E0,-4.8E0,9.6E0,-4.4163303E-3,-6.6037998E-3,-2.8258003E-3,-8.4212355E-5,6.4544607E-4,-3.2357513E-3,3.606056E-3,7.6053996E-4],"split_indices":[51,109,77,80,77,25,108,0,0,0,0,0,0,0,0],"split_type":[0,0,0,0,0,0,0,0,0,0,0,0,0,0,0],"sum_hessian":[6.302149E3,3.1008196E3,3.2013293E3,1.3011722E3,1.7996473E3,1.1136968E3,2.0876326E3,7.8847284E2,5.126994E2,1.2641945E3,5.354528E2,3.8149063E2,7.322062E2,7.056636E2,1.3819691E3],"tree_param":{"num_deleted":"0","num_feature":"110","num_nodes":"15","size_leaf_vector":"1"}},{"base_weights":[1.4317967E-1,3.3848858E-1,-4.604388E-2,5.2826667E-1,2.0105898E-1,1.906883E-1,-1.7236507E-1,4.4163316E-3,6.6037993E-3,2.8258003E-3,8.421238E-5,-6.454459E-4,3.235752E-3,-3.606057E-3,-7.605404E-4],"categories":[],"categories_nodes":[],"categories_segments":[],"categories_sizes":[],"default_left":[0,0,0,0,0,0,0,0,0,0,0,0,0,0,0],"id":13,"left_children":[1,3,5,7,9,11,13,-1,-1,-1,-1,-1,-1,-1,-1],"loss_changes":[2.3296133E2,8.0792694E1,9.5796265E1,1.4612274E1,2.8275047E1,3.782818E1,3.7838745E1,0E0,0E0,0E0,0E0,0E0,0E0,0E0,0E0],"parents":[2147483647,0,0,1,1,2,2,3,3,4,4,5,5,6,6],"right_children":[2,4,6,8,10,12,14,-1,-1,-1,-1,-1,-1,-1,-1],"split_conditions":[1.5E1,1.03E1,-1.5E0,2.3E1,5.1E0,-4.8E0,9.6E0,4.4163316E-3,6.6037993E-3,2.8258003E-3,8.421238E-5,-6.454459E-4,3.235752E-3,-3.606057E-3,-7.605404E-4],"split_indices":[51,109,77,80,77,25,108,0,0,0,0,0,0,0,0],"split_type":[0,0,0,0,0,0,0,0,0,0,0,0,0,0,0],"sum_hessian":[6.302149E3,3.1008196E3,3.2013293E3,1.3011722E3,1.7996473E3,1.1136968E3,2.0876326E3,7.8847284E2,5.126994E2,1.2641945E3,5.354528E2,3.814906E2,7.322062E2,7.056636E2,1.381969E3],"tree_param":{"num_deleted":"0","num_feature":"110","num_nodes":"15","size_leaf_vector":"1"}},{"base_weights":[-1.4176859E-1,1.0612838E-1,-2.880747E-1,-1.3638265E-1,2.2023599E-1,-4.6911567E-1,-1.3289484E-1,1.1240689E-3,-2.763466E-3,3.9899424E-3,1.1379053E-3,-3.645394E-3,-5.6531606E-3,-3.066107E-3,-1.3541272E-4],"categories":[],"categories_nodes":[],"categories_segments":[],"categories_sizes":[],"default_left":[0,0,0,0,0,0,0,0,0,0,0,0,0,0,0],"id":14,"left_children":[1,3,5,7,9,11,13,-1,-1,-1,-1,-1,-1,-1,-1],"loss_changes":[2.2860863E2,6.477783E1,1.1128851E2,2.6122368E1,3.023796E1,1.8193542E1,4.4274307E1,0E0,0E0,0E0,0E0,0E0,0E0,0E0,0E0],"parents":[2147483647,0,0,1,1,2,2,3,3,4,4,5,5,6,6],"right_children":[2,4,6,8,10,12,14,-1,-1,-1,-1,-1,-1,-1,-1],"split_conditions":[4.59E-1,-2E0,1.04E1,9.5E0,9.5E0,1.08E1,8E0,1.1240689E-3,-2.763466E-3,3.9899424E-3,1.1379053E-3,-3.645394E-3,-5.6531606E-3,-3.066107E-3,-1.3541272E-4],"split_indices":[3,77,109,108,108,108,51,0,0,0,0,0,0,0,0],"split_type":[0,0,0,0,0,0,0,0,0,0,0,0,0,0,0],"sum_hessian":[6.3013247E3,2.3388008E3,3.9625237E3,7.482859E2,1.5905149E3,1.8279354E3,2.1345884E3,2.694782E2,4.7880768E2,5.925958E2,9.9791907E2,8.781344E2,9.49801E2,8.686797E2,1.2659086E3],"tree_param":{"num_deleted":"0","num_feature":"110","num_nodes":"15","size_leaf_vector":"1"}},{"base_weights":[1.417686E-1,-1.0612841E-1,2.8807473E-1,1.3638268E-1,-2.2023605E-1,4.6911567E-1,1.3289489E-1,-1.1240689E-3,2.7634662E-3,-3.989943E-3,-1.137906E-3,3.645394E-3,5.653161E-3,3.0661072E-3,1.354134E-4],"categories":[],"categories_nodes":[],"categories_segments":[],"categories_sizes":[],"default_left":[0,0,0,0,0,0,0,0,0,0,0,0,0,0,0],"id":15,"left_children":[1,3,5,7,9,11,13,-1,-1,-1,-1,-1,-1,-1,-1],"loss_changes":[2.2860866E2,6.477787E1,1.1128851E2,2.6122375E1,3.0237938E1,1.8193542E1,4.4274277E1,0E0,0E0,0E0,0E0,0E0,0E0,0E0,0E0],"parents":[2147483647,0,0,1,1,2,2,3,3,4,4,5,5,6,6],"right_children":[2,4,6,8,10,12,14,-1,-1,-1,-1,-1,-1,-1,-1],"split_conditions":[4.59E-1,-2E0,1.04E1,9.5E0,9.5E0,1.08E1,8E0,-1.1240689E-3,2.7634662E-3,-3.989943E-3,-1.137906E-3,3.645394E-3,5.653161E-3,3.0661072E-3,1.354134E-4],"split_indices":[3,77,109,108,108,108,51,0,0,0,0,0,0,0,0],"split_type":[0,0,0,0,0,0,0,0,0,0,0,0,0,0,0],"sum_hessian":[6.3013247E3,2.3388008E3,3.9625237E3,7.4828595E2,1.5905149E3,1.8279355E3,2.1345884E3,2.694782E2,4.788077E2,5.925959E2,9.97919E2,8.781344E2,9.498011E2,8.6867975E2,1.2659086E3],"tree_param":{"num_deleted":"0","num_feature":"110","num_nodes":"15","size_leaf_vector":"1"}},{"base_weights":[-1.4037238E-1,-3.3217797E-1,4.541168E-2,-5.186336E-1,-1.9723588E-1,-1.8711743E-1,1.6948293E-1,-4.327471E-3,-6.496785E-3,-2.7786093E-3,-6.7441055E-5,6.4117095E-4,-3.1795597E-3,3.5401678E-3,7.509928E-4],"categories":[],"categories_nodes":[],"categories_segments":[],"categories_sizes":[],"default_left":[0,0,0,0,0,0,0,0,0,0,0,0,0,0,0],"id":16,"left_children":[1,3,5,7,9,11,13,-1,-1,-1,-1,-1,-1,-1,-1],"loss_changes":[2.2456302E2,7.79108E1,9.240541E1,1.4363892E1,2.764927E1,3.6654827E1,3.6346268E1,0E0,0E0,0E0,0E0,0E0,0E0,0E0,0E0],"parents":[2147483647,0,0,1,1,2,2,3,3,4,4,5,5,6,6],"right_children":[2,4,6,8,10,12,14,-1,-1,-1,-1,-1,-1,-1,-1],"split_conditions":[1.5E1,1.03E1,-1.5E0,2.3E1,5.1E0,-4.8E0,9.6E0,-4.327471E-3,-6.496785E-3,-2.7786093E-3,-6.7441055E-5,6.4117095E-4,-3.1795597E-3,3.5401678E-3,7.509928E-4],"split_indices":[51,109,77,80,77,25,108,0,0,0,0,0,0,0,0],"split_type":[0,0,0,0,0,0,0,0,0,0,0,0,0,0,0],"sum_hessian":[6.3004336E3,3.0995918E3,3.2008418E3,1.3002014E3,1.7993904E3,1.1134857E3,2.0873562E3,7.8803064E2,5.121707E2,1.2639631E3,5.3542725E2,3.814809E2,7.320048E2,7.054153E2,1.3819409E3],"tree_param":{"num_deleted":"0","num_feature":"110","num_nodes":"15","size_leaf_vector":"1"}},{"base_weights":[1.403724E-1,3.32178E-1,-4.5411676E-2,5.1863354E-1,1.9723593E-1,1.8711741E-1,-1.6948292E-1,4.3274704E-3,6.496785E-3,2.7786102E-3,6.744111E-5,-6.411714E-4,3.17956E-3,-3.5401685E-3,-7.5099204E-4],"categories":[],"categories_nodes":[],"categories_segments":[],"categories_sizes":[],"default_left":[0,0,0,0,0,0,0,0,0,0,0,0,0,0,0],"id":17,"left_children":[1,3,5,7,9,11,13,-1,-1,-1,-1,-1,-1,-1,-1],"loss_changes":[2.2456305E2,7.791077E1,9.2405396E1,1.4363892E1,2.7649277E1,3.665483E1,3.634631E1,0E0,0E0,0E0,0E0,0E0,0E0,0E0,0E0],"parents":[2147483647,0,0,1,1,2,2,3,3,4,4,5,5,6,6],"right_children":[2,4,6,8,10,12,14,-1,-1,-1,-1,-1,-1,-1,-1],"split_conditions":[1.5E1,1.03E1,-1.5E0,2.3E1,5.1E0,-4.8E0,9.6E0,4.3274704E-3,6.496785E-3,2.7786102E-3,6.744111E-5,-6.411714E-4,3.17956E-3,-3.5401685E-3,-7.5099204E-4],"split_indices":[51,109,77,80,77,25,108,0,0,0,0,0,0,0,0],"split_type":[0,0,0,0,0,0,0,0,0,0,0,0,0,0,0],"sum_hessian":[6.3004336E3,3.0995916E3,3.2008418E3,1.3002013E3,1.7993903E3,1.1134857E3,2.0873562E3,7.8803064E2,5.121707E2,1.2639631E3,5.3542725E2,3.8148093E2,7.320048E2,7.054153E2,1.3819409E3],"tree_param":{"num_deleted":"0","num_feature":"110","num_nodes":"15","size_leaf_vector":"1"}},{"base_weights":[-1.3899384E-1,1.0451309E-1,-2.8273746E-1,-1.334749E-1,2.1649492E-1,-4.6068177E-1,-1.3029966E-1,1.1163998E-3,-2.7140167E-3,3.9186287E-3,1.121092E-3,-3.8309263E-3,-5.878785E-3,-3.0167173E-3,-1.2578805E-4],"categories":[],"categories_nodes":[],"categories_segments":[],"categories_sizes":[],"default_left":[0,0,0,0,0,0,0,0,0,0,0,0,0,0,0],"id":18,"left_children":[1,3,5,7,9,11,13,-1,-1,-1,-1,-1,-1,-1,-1],"loss_changes":[2.2055942E2,6.2373985E1,1.0741144E2,2.5357876E1,2.9084656E1,1.7812256E1,4.307476E1,0E0,0E0,0E0,0E0,0E0,0E0,0E0,0E0],"parents":[2147483647,0,0,1,1,2,2,3,3,4,4,5,5,6,6],"right_children":[2,4,6,8,10,12,14,-1,-1,-1,-1,-1,-1,-1,-1],"split_conditions":[4.59E-1,-2E0,1.04E1,9.5E0,9.5E0,2.3E1,8E0,1.1163998E-3,-2.7140167E-3,3.9186287E-3,1.121092E-3,-3.8309263E-3,-5.878785E-3,-3.0167173E-3,-1.2578805E-4],"split_indices":[3,77,109,108,108,80,51,0,0,0,0,0,0,0,0],"split_type":[0,0,0,0,0,0,0,0,0,0,0,0,0,0,0],"sum_hessian":[6.2993916E3,2.338374E3,3.9610176E3,7.481614E2,1.5902125E3,1.8266747E3,2.134343E3,2.694688E2,4.7869257E2,5.9233545E2,9.9787714E2,1.1370773E3,6.8959735E2,8.6848444E2,1.2658585E3],"tree_param":{"num_deleted":"0","num_feature":"110","num_nodes":"15","size_leaf_vector":"1"}},{"base_weights":[1.3899383E-1,-1.04513094E-1,2.8273743E-1,1.3347489E-1,-2.1649492E-1,4.6068177E-1,1.302996E-1,-1.1163995E-3,2.7140167E-3,-3.918628E-3,-1.121092E-3,3.830926E-3,5.878785E-3,3.0167166E-3,1.2578769E-4],"categories":[],"categories_nodes":[],"categories_segments":[],"categories_sizes":[],"default_left":[0,0,0,0,0,0,0,0,0,0,0,0,0,0,0],"id":19,"left_children":[1,3,5,7,9,11,13,-1,-1,-1,-1,-1,-1,-1,-1],"loss_changes":[2.205594E2,6.237398E1,1.074115E2,2.5357876E1,2.9084656E1,1.7812256E1,4.3074738E1,0E0,0E0,0E0,0E0,0E0,0E0,0E0,0E0],"parents":[2147483647,0,0,1,1,2,2,3,3,4,4,5,5,6,6],"right_children":[2,4,6,8,10,12,14,-1,-1,-1,-1,-1,-1,-1,-1],"split_conditions":[4.59E-1,-2E0,1.04E1,9.5E0,9.5E0,2.3E1,8E0,-1.1163995E-3,2.7140167E-3,-3.918628E-3,-1.121092E-3,3.830926E-3,5.878785E-3,3.0167166E-3,1.2578769E-4],"split_indices":[3,77,109,108,108,80,51,0,0,0,0,0,0,0,0],"split_type":[0,0,0,0,0,0,0,0,0,0,0,0,0,0,0],"sum_hessian":[6.2993916E3,2.3383738E3,3.9610176E3,7.481614E2,1.5902125E3,1.8266747E3,2.134343E3,2.694688E2,4.7869254E2,5.9233545E2,9.978771E2,1.1370774E3,6.8959735E2,8.6848444E2,1.2658585E3],"tree_param":{"num_deleted":"0","num_feature":"110","num_nodes":"15","size_leaf_vector":"1"}},{"base_weights":[-1.3763013E-1,-3.2611674E-1,4.4885375E-2,-4.1824558E-1,-6.0251627E-2,-1.0861544E-1,2.2818448E-1,-3.5031002E-3,-6.1977957E-3,1.3666948E-3,-1.7960022E-3,1.2752961E-3,-2.3436116E-3,3.9230357E-3,1.2953022E-3],"categories":[],"categories_nodes":[],"categories_segments":[],"categories_sizes":[],"default_left":[0,0,0,0,0,0,0,0,0,0,0,0,0,0,0],"id":20,"left_children":[1,3,5,7,9,11,13,-1,-1,-1,-1,-1,-1,-1,-1],"loss_changes":[2.1672046E2,7.588281E1,9.009573E1,3.1291565E1,1.8795918E1,5.178377E1,2.3576996E1,0E0,0E0,0E0,0E0,0E0,0E0,0E0,0E0],"parents":[2147483647,0,0,1,1,2,2,3,3,4,4,5,5,6,6],"right_children":[2,4,6,8,10,12,14,-1,-1,-1,-1,-1,-1,-1,-1],"split_conditions":[1.5E1,1.11E1,5.25E-1,2.3E1,3.2E0,-4.7E0,9.7E0,-3.5031002E-3,-6.1977957E-3,1.3666948E-3,-1.7960022E-3,1.2752961E-3,-2.3436116E-3,3.9230357E-3,1.2953022E-3],"split_indices":[51,109,55,80,25,25,108,0,0,0,0,0,0,0,0],"split_type":[0,0,0,0,0,0,0,0,0,0,0,0,0,0,0],"sum_hessian":[6.298272E3,3.0980654E3,3.2002068E3,2.3003604E3,7.97705E2,1.7418938E3,1.4583129E3,1.722468E3,5.778923E2,3.0096988E2,4.967351E2,6.0524866E2,1.1366453E3,5.4638385E2,9.11929E2],"tree_param":{"num_deleted":"0","num_feature":"110","num_nodes":"15","size_leaf_vector":"1"}},{"base_weights":[1.3763013E-1,3.2611674E-1,-4.4885393E-2,4.1824555E-1,6.0251683E-2,1.0861543E-1,-2.2818449E-1,3.5031002E-3,6.1977953E-3,-1.3666943E-3,1.796003E-3,-1.2752968E-3,2.3436116E-3,-3.923036E-3,-1.2953022E-3],"categories":[],"categories_nodes":[],"categories_segments":[],"categories_sizes":[],"default_left":[0,0,0,0,0,0,0,0,0,0,0,0,0,0,0],"id":21,"left_children":[1,3,5,7,9,11,13,-1,-1,-1,-1,-1,-1,-1,-1],"loss_changes":[2.1672052E2,7.588275E1,9.009573E1,3.1291565E1,1.879592E1,5.178379E1,2.3576988E1,0E0,0E0,0E0,0E0,0E0,0E0,0E0,0E0],"parents":[2147483647,0,0,1,1,2,2,3,3,4,4,5,5,6,6],"right_children":[2,4,6,8,10,12,14,-1,-1,-1,-1,-1,-1,-1,-1],"split_conditions":[1.5E1,1.11E1,5.25E-1,2.3E1,3.2E0,-4.7E0,9.7E0,3.5031002E-3,6.1977953E-3,-1.3666943E-3,1.796003E-3,-1.2752968E-3,2.3436116E-3,-3.923036E-3,-1.2953022E-3],"split_indices":[51,109,55,80,25,25,108,0,0,0,0,0,0,0,0],"split_type":[0,0,0,0,0,0,0,0,0,0,0,0,0,0,0],"sum_hessian":[6.298272E3,3.0980652E3,3.2002068E3,2.3003604E3,7.97705E2,1.7418939E3,1.458313E3,1.722468E3,5.778923E2,3.0096988E2,4.9673514E2,6.0524866E2,1.1366453E3,5.463839E2,9.119291E2],"tree_param":{"num_deleted":"0","num_feature":"110","num_nodes":"15","size_leaf_vector":"1"}},{"base_weights":[-1.3628004E-1,1.0283761E-1,-2.77469E-1,-9.315342E-2,2.3481645E-1,-4.5271E-1,-1.2744628E-1,1.2789151E-3,-2.210327E-3,4.137425E-3,1.2945486E-3,-3.5003892E-3,-5.4721576E-3,-2.9603054E-3,-1.1672218E-4],"categories":[],"categories_nodes":[],"categories_segments":[],"categories_sizes":[],"default_left":[0,0,0,0,0,0,0,0,0,0,0,0,0,0,0],"id":22,"left_children":[1,3,5,7,9,11,13,-1,-1,-1,-1,-1,-1,-1,-1],"loss_changes":[2.1265784E2,6.0521637E1,1.0405679E2,2.6653572E1,2.6301224E1,1.7527985E1,4.1667164E1,0E0,0E0,0E0,0E0,0E0,0E0,0E0,0E0],"parents":[2147483647,0,0,1,1,2,2,3,3,4,4,5,5,6,6],"right_children":[2,4,6,8,10,12,14,-1,-1,-1,-1,-1,-1,-1,-1],"split_conditions":[4.59E-1,4.65E-1,1.04E1,9.5E0,9.5E0,1.08E1,8E0,1.2789151E-3,-2.210327E-3,4.137425E-3,1.2945486E-3,-3.5003892E-3,-5.4721576E-3,-2.9603054E-3,-1.1672218E-4],"split_indices":[3,55,109,108,108,108,51,0,0,0,0,0,0,0,0],"split_type":[0,0,0,0,0,0,0,0,0,0,0,0,0,0,0],"sum_hessian":[6.297118E3,2.337908E3,3.9592104E3,9.4091943E2,1.3969885E3,1.8251921E3,2.1340183E3,3.4484305E2,5.9607635E2,5.166618E2,8.803268E2,8.770589E2,9.481333E2,8.682133E2,1.2658049E3],"tree_param":{"num_deleted":"0","num_feature":"110","num_nodes":"15","size_leaf_vector":"1"}},{"base_weights":[1.3628004E-1,-1.0283762E-1,2.7746898E-1,9.31534E-2,-2.3481646E-1,4.5271E-1,1.2744628E-1,-1.2789157E-3,2.210327E-3,-4.137425E-3,-1.2945486E-3,3.5003892E-3,5.4721576E-3,2.9603054E-3,1.16722345E-4],"categories":[],"categories_nodes":[],"categories_segments":[],"categories_sizes":[],"default_left":[0,0,0,0,0,0,0,0,0,0,0,0,0,0,0],"id":23,"left_children":[1,3,5,7,9,11,13,-1,-1,-1,-1,-1,-1,-1,-1],"loss_changes":[2.1265785E2,6.0521637E1,1.0405673E2,2.665358E1,2.6301231E1,1.7528046E1,4.166715E1,0E0,0E0,0E0,0E0,0E0,0E0,0E0,0E0],"parents":[2147483647,0,0,1,1,2,2,3,3,4,4,5,5,6,6],"right_children":[2,4,6,8,10,12,14,-1,-1,-1,-1,-1,-1,-1,-1],"split_conditions":[4.59E-1,4.65E-1,1.04E1,9.5E0,9.5E0,1.08E1,8E0,-1.2789157E-3,2.210327E-3,-4.137425E-3,-1.2945486E-3,3.5003892E-3,5.4721576E-3,2.9603054E-3,1.16722345E-4],"split_indices":[3,55,109,108,108,108,51,0,0,0,0,0,0,0,0],"split_type":[0,0,0,0,0,0,0,0,0,0,0,0,0,0,0],"sum_hessian":[6.297118E3,2.337908E3,3.9592104E3,9.4091943E2,1.3969885E3,1.8251921E3,2.1340183E3,3.4484305E2,5.9607635E2,5.1666174E2,8.803268E2,8.770589E2,9.4813324E2,8.6821326E2,1.2658049E3],"tree_param":{"num_deleted":"0","num_feature":"110","num_nodes":"15","size_leaf_vector":"1"}},{"base_weights":[-1.3494608E-1,-3.200925E-1,4.426668E-2,-4.1093814E-1,-5.8090854E-2,-1.06724195E-1,2.245761E-1,-3.4386092E-3,-6.101006E-3,1.3543422E-3,-1.7541003E-3,1.2562437E-3,-2.3046134E-3,3.8556578E-3,1.278489E-3],"categories":[],"categories_nodes":[],"categories_segments":[],"categories_sizes":[],"default_left":[0,0,0,0,0,0,0,0,0,0,0,0,0,0,0],"id":24,"left_children":[1,3,5,7,9,11,13,-1,-1,-1,-1,-1,-1,-1,-1],"loss_changes":[2.0894717E2,7.369644E1,8.715979E1,3.0512115E1,1.815537E1,5.012845E1,2.267022E1,0E0,0E0,0E0,0E0,0E0,0E0,0E0,0E0],"parents":[2147483647,0,0,1,1,2,2,3,3,4,4,5,5,6,6],"right_children":[2,4,6,8,10,12,14,-1,-1,-1,-1,-1,-1,-1,-1],"split_conditions":[1.5E1,1.11E1,5.25E-1,2.3E1,3.2E0,-4.7E0,9.7E0,-3.4386092E-3,-6.101006E-3,1.3543422E-3,-1.7541003E-3,1.2562437E-3,-2.3046134E-3,3.8556578E-3,1.278489E-3],"split_indices":[51,109,55,80,25,25,108,0,0,0,0,0,0,0,0],"split_type":[0,0,0,0,0,0,0,0,0,0,0,0,0,0,0],"sum_hessian":[6.2958423E3,3.09627E3,3.1995723E3,2.2986685E3,7.976016E2,1.7415819E3,1.4579904E3,1.7215747E3,5.770937E2,3.009734E2,4.9662823E2,6.051816E2,1.1364004E3,5.460972E2,9.118931E2],"tree_param":{"num_deleted":"0","num_feature":"110","num_nodes":"15","size_leaf_vector":"1"}},{"base_weights":[1.349461E-1,3.2009253E-1,-4.426667E-2,4.1093817E-1,5.8090854E-2,1.0672422E-1,-2.2457612E-1,3.4386092E-3,6.1010066E-3,-1.3543426E-3,1.7541004E-3,-1.2562439E-3,2.304614E-3,-3.8556585E-3,-1.2784889E-3],"categories":[],"categories_nodes":[],"categories_segments":[],"categories_sizes":[],"default_left":[0,0,0,0,0,0,0,0,0,0,0,0,0,0,0],"id":25,"left_children":[1,3,5,7,9,11,13,-1,-1,-1,-1,-1,-1,-1,-1],"loss_changes":[2.0894719E2,7.369641E1,8.715981E1,3.0512115E1,1.8155373E1,5.012846E1,2.2670235E1,0E0,0E0,0E0,0E0,0E0,0E0,0E0,0E0],"parents":[2147483647,0,0,1,1,2,2,3,3,4,4,5,5,6,6],"right_children":[2,4,6,8,10,12,14,-1,-1,-1,-1,-1,-1,-1,-1],"split_conditions":[1.5E1,1.11E1,5.25E-1,2.3E1,3.2E0,-4.7E0,9.7E0,3.4386092E-3,6.1010066E-3,-1.3543426E-3,1.7541004E-3,-1.2562439E-3,2.304614E-3,-3.8556585E-3,-1.2784889E-3],"split_indices":[51,109,55,80,25,25,108,0,0,0,0,0,0,0,0],"split_type":[0,0,0,0,0,0,0,0,0,0,0,0,0,0,0],"sum_hessian":[6.2958423E3,3.09627E3,3.1995723E3,2.2986685E3,7.976016E2,1.7415819E3,1.4579902E3,1.7215747E3,5.770937E2,3.009734E2,4.9662823E2,6.051816E2,1.1364004E3,5.4609717E2,9.1189307E2],"tree_param":{"num_deleted":"0","num_feature":"110","num_nodes":"15","size_leaf_vector":"1"}},{"base_weights":[-1.3362654E-1,1.0119146E-1,-2.7231893E-1,-1.299562E-1,2.0996696E-1,-4.4493052E-1,-1.24658346E-1,1.0831328E-3,-2.6408262E-3,3.7943497E-3,1.0918631E-3,-3.4360238E-3,-5.3824484E-3,-2.9051572E-3,-1.0793669E-4],"categories":[],"categories_nodes":[],"categories_segments":[],"categories_sizes":[],"default_left":[0,0,0,0,0,0,0,0,0,0,0,0,0,0,0],"id":26,"left_children":[1,3,5,7,9,11,13,-1,-1,-1,-1,-1,-1,-1,-1],"loss_changes":[2.0505585E2,5.8821648E1,1.0082864E2,2.3962124E1,2.7122543E1,1.7066254E1,4.0309887E1,0E0,0E0,0E0,0E0,0E0,0E0,0E0,0E0],"parents":[2147483647,0,0,1,1,2,2,3,3,4,4,5,5,6,6],"right_children":[2,4,6,8,10,12,14,-1,-1,-1,-1,-1,-1,-1,-1],"split_conditions":[4.59E-1,-2E0,1.04E1,9.5E0,9.5E0,1.08E1,8E0,1.0831328E-3,-2.6408262E-3,3.7943497E-3,1.0918631E-3,-3.4360238E-3,-5.3824484E-3,-2.9051572E-3,-1.0793669E-4],"split_indices":[3,77,109,108,108,108,51,0,0,0,0,0,0,0,0],"split_type":[0,0,0,0,0,0,0,0,0,0,0,0,0,0,0],"sum_hessian":[6.2944927E3,2.3373804E3,3.9571125E3,7.4789996E2,1.5894803E3,1.8234874E3,2.133625E3,2.6944162E2,4.784583E2,5.9171497E2,9.977654E2,8.764502E2,9.4703723E2,8.678897E2,1.2657355E3],"tree_param":{"num_deleted":"0","num_feature":"110","num_nodes":"15","size_leaf_vector":"1"}},{"base_weights":[1.3362652E-1,-1.01191476E-1,2.7231893E-1,1.2995617E-1,-2.0996696E-1,4.4493055E-1,1.2465834E-1,-1.0831334E-3,2.6408262E-3,-3.794349E-3,-1.0918636E-3,3.436024E-3,5.3824484E-3,2.9051565E-3,1.07936925E-4],"categories":[],"categories_nodes":[],"categories_segments":[],"categories_sizes":[],"default_left":[0,0,0,0,0,0,0,0,0,0,0,0,0,0,0],"id":27,"left_children":[1,3,5,7,9,11,13,-1,-1,-1,-1,-1,-1,-1,-1],"loss_changes":[2.0505585E2,5.8821644E1,1.00828674E2,2.3962124E1,2.712252E1,1.7066254E1,4.030987E1,0E0,0E0,0E0,0E0,0E0,0E0,0E0,0E0],"parents":[2147483647,0,0,1,1,2,2,3,3,4,4,5,5,6,6],"right_children":[2,4,6,8,10,12,14,-1,-1,-1,-1,-1,-1,-1,-1],"split_conditions":[4.59E-1,-2E0,1.04E1,9.5E0,9.5E0,1.08E1,8E0,-1.0831334E-3,2.6408262E-3,-3.794349E-3,-1.0918636E-3,3.436024E-3,5.3824484E-3,2.9051565E-3,1.07936925E-4],"split_indices":[3,77,109,108,108,108,51,0,0,0,0,0,0,0,0],"split_type":[0,0,0,0,0,0,0,0,0,0,0,0,0,0,0],"sum_hessian":[6.2944927E3,2.3373804E3,3.9571125E3,7.478999E2,1.5894803E3,1.8234874E3,2.133625E3,2.6944162E2,4.784583E2,5.9171497E2,9.977653E2,8.7645026E2,9.4703723E2,8.6788965E2,1.2657354E3],"tree_param":{"num_deleted":"0","num_feature":"110","num_nodes":"15","size_leaf_vector":"1"}},{"base_weights":[-1.3232309E-1,-3.1420794E-1,4.3656643E-2,-4.038071E-1,-5.5982757E-2,-9.29606E-2,2.3709893E-1,-3.3756131E-3,-6.0069603E-3,1.3420781E-3,-1.7131212E-3,1.3667735E-3,-2.1113337E-3,3.933858E-3,1.4206447E-3],"categories":[],"categories_nodes":[],"categories_segments":[],"categories_sizes":[],"default_left":[0,0,0,0,0,0,0,0,0,0,0,0,0,0,0],"id":28,"left_children":[1,3,5,7,9,11,13,-1,-1,-1,-1,-1,-1,-1,-1],"loss_changes":[2.0147278E2,7.15903E1,8.458527E1,2.976651E1,1.7537313E1,5.0939796E1,1.961998E1,0E0,0E0,0E0,0E0,0E0,0E0,0E0,0E0],"parents":[2147483647,0,0,1,1,2,2,3,3,4,4,5,5,6,6],"right_children":[2,4,6,8,10,12,14,-1,-1,-1,-1,-1,-1,-1,-1],"split_conditions":[1.5E1,1.11E1,5.45E-1,2.3E1,3.2E0,-4.8E0,9.7E0,-3.3756131E-3,-6.0069603E-3,1.3420781E-3,-1.7131212E-3,1.3667735E-3,-2.1113337E-3,3.933858E-3,1.4206447E-3],"split_indices":[51,109,55,80,25,25,108,0,0,0,0,0,0,0,0],"split_type":[0,0,0,0,0,0,0,0,0,0,0,0,0,0,0],"sum_hessian":[6.2930127E3,3.0941995E3,3.1988132E3,2.2967185E3,7.974808E2,1.8750745E3,1.3237388E3,1.7205366E3,5.7618195E2,3.009757E2,4.965051E2,6.370253E2,1.2380492E3,4.9937036E2,8.2436835E2],"tree_param":{"num_deleted":"0","num_feature":"110","num_nodes":"15","size_leaf_vector":"1"}},{"base_weights":[1.323231E-1,3.1420797E-1,-4.365663E-2,4.0380713E-1,5.59828E-2,9.296062E-2,-2.370989E-1,3.3756134E-3,6.0069603E-3,-1.3420783E-3,1.7131219E-3,-1.3667733E-3,2.1113337E-3,-3.9338577E-3,-1.4206447E-3],"categories":[],"categories_nodes":[],"categories_segments":[],"categories_sizes":[],"default_left":[0,0,0,0,0,0,0,0,0,0,0,0,0,0,0],"id":29,"left_children":[1,3,5,7,9,11,13,-1,-1,-1,-1,-1,-1,-1,-1],"loss_changes":[2.0147284E2,7.159024E1,8.4585266E1,2.976654E1,1.7537325E1,5.0939793E1,1.961998E1,0E0,0E0,0E0,0E0,0E0,0E0,0E0,0E0],"parents":[2147483647,0,0,1,1,2,2,3,3,4,4,5,5,6,6],"right_children":[2,4,6,8,10,12,14,-1,-1,-1,-1,-1,-1,-1,-1],"split_conditions":[1.5E1,1.11E1,5.45E-1,2.3E1,3.2E0,-4.8E0,9.7E0,3.3756134E-3,6.0069603E-3,-1.3420783E-3,1.7131219E-3,-1.3667733E-3,2.1113337E-3,-3.9338577E-3,-1.4206447E-3],"split_indices":[51,109,55,80,25,25,108,0,0,0,0,0,0,0,0],"split_type":[0,0,0,0,0,0,0,0,0,0,0,0,0,0,0],"sum_hessian":[6.2930127E3,3.0941995E3,3.1988132E3,2.2967188E3,7.974808E2,1.8750745E3,1.3237388E3,1.7205367E3,5.7618195E2,3.009757E2,4.965051E2,6.370253E2,1.2380492E3,4.9937036E2,8.2436835E2],"tree_param":{"num_deleted":"0","num_feature":"110","num_nodes":"15","size_leaf_vector":"1"}},{"base_weights":[-1.3103269E-1,9.956834E-2,-2.6728064E-1,-1.2805219E-1,2.0669109E-1,-4.3734068E-1,-1.21925786E-1,1.0676485E-3,-2.602672E-3,3.7337812E-3,1.0762047E-3,-3.3731004E-3,-5.29512E-3,-2.8512303E-3,-9.928554E-5],"categories":[],"categories_nodes":[],"categories_segments":[],"categories_sizes":[],"default_left":[0,0,0,0,0,0,0,0,0,0,0,0,0,0,0],"id":30,"left_children":[1,3,5,7,9,11,13,-1,-1,-1,-1,-1,-1,-1,-1],"loss_changes":[1.9772992E2,5.7028954E1,9.7728485E1,2.3273306E1,2.6217209E1,1.6625305E1,3.9004738E1,0E0,0E0,0E0,0E0,0E0,0E0,0E0,0E0],"parents":[2147483647,0,0,1,1,2,2,3,3,4,4,5,5,6,6],"right_children":[2,4,6,8,10,12,14,-1,-1,-1,-1,-1,-1,-1,-1],"split_conditions":[4.59E-1,-2E0,1.04E1,9.5E0,9.5E0,1.08E1,8E0,1.0676485E-3,-2.602672E-3,3.7337812E-3,1.0762047E-3,-3.3731004E-3,-5.29512E-3,-2.8512303E-3,-9.928554E-5],"split_indices":[3,77,109,108,108,108,51,0,0,0,0,0,0,0,0],"split_type":[0,0,0,0,0,0,0,0,0,0,0,0,0,0,0],"sum_hessian":[6.2914927E3,2.3367644E3,3.9547283E3,7.4773627E2,1.5890281E3,1.8215594E3,2.133169E3,2.6942444E2,4.7831186E2,5.913345E2,9.9769366E2,8.757719E2,9.4578754E2,8.6751697E2,1.265652E3],"tree_param":{"num_deleted":"0","num_feature":"110","num_nodes":"15","size_leaf_vector":"1"}},{"base_weights":[1.310327E-1,-9.956834E-2,2.6728064E-1,1.2805216E-1,-2.0669107E-1,4.3734068E-1,1.2192579E-1,-1.0676489E-3,2.6026717E-3,-3.7337812E-3,-1.0762047E-3,3.3731004E-3,5.29512E-3,2.8512308E-3,9.928545E-5],"categories":[],"categories_nodes":[],"categories_segments":[],"categories_sizes":[],"default_left":[0,0,0,0,0,0,0,0,0,0,0,0,0,0,0],"id":31,"left_children":[1,3,5,7,9,11,13,-1,-1,-1,-1,-1,-1,-1,-1],"loss_changes":[1.9772998E2,5.7028954E1,9.7728516E1,2.3273302E1,2.6217186E1,1.6625305E1,3.9004753E1,0E0,0E0,0E0,0E0,0E0,0E0,0E0,0E0],"parents":[2147483647,0,0,1,1,2,2,3,3,4,4,5,5,6,6],"right_children":[2,4,6,8,10,12,14,-1,-1,-1,-1,-1,-1,-1,-1],"split_conditions":[4.59E-1,-2E0,1.04E1,9.5E0,9.5E0,1.08E1,8E0,-1.0676489E-3,2.6026717E-3,-3.7337812E-3,-1.0762047E-3,3.3731004E-3,5.29512E-3,2.8512308E-3,9.928545E-5],"split_indices":[3,77,109,108,108,108,51,0,0,0,0,0,0,0,0],"split_type":[0,0,0,0,0,0,0,0,0,0,0,0,0,0,0],"sum_hessian":[6.2914927E3,2.3367644E3,3.9547283E3,7.4773627E2,1.5890281E3,1.8215594E3,2.133169E3,2.6942444E2,4.7831186E2,5.913345E2,9.9769366E2,8.757719E2,9.4578754E2,8.6751697E2,1.265652E3],"tree_param":{"num_deleted":"0","num_feature":"110","num_nodes":"15","size_leaf_vector":"1"}},{"base_weights":[-1.297582E-1,-3.084573E-1,4.3054707E-2,-3.9684358E-1,-5.392835E-2,-1.0349165E-1,2.1806708E-1,-3.3140248E-3,-5.9155473E-3,1.3298565E-3,-1.6730498E-3,1.2138366E-3,-2.2327702E-3,3.7319076E-3,1.2496914E-3],"categories":[],"categories_nodes":[],"categories_segments":[],"categories_sizes":[],"default_left":[0,0,0,0,0,0,0,0,0,0,0,0,0,0,0],"id":32,"left_children":[1,3,5,7,9,11,13,-1,-1,-1,-1,-1,-1,-1,-1],"loss_changes":[1.9428387E2,6.95585E1,8.2067856E1,2.9053833E1,1.6940493E1,4.6944405E1,2.1012405E1,0E0,0E0,0E0,0E0,0E0,0E0,0E0,0E0],"parents":[2147483647,0,0,1,1,2,2,3,3,4,4,5,5,6,6],"right_children":[2,4,6,8,10,12,14,-1,-1,-1,-1,-1,-1,-1,-1],"split_conditions":[1.5E1,1.11E1,5.25E-1,2.3E1,3.2E0,-4.7E0,9.7E0,-3.3140248E-3,-5.9155473E-3,1.3298565E-3,-1.6730498E-3,1.2138366E-3,-2.2327702E-3,3.7319076E-3,1.2496914E-3],"split_indices":[51,109,55,80,25,25,108,0,0,0,0,0,0,0,0],"split_type":[0,0,0,0,0,0,0,0,0,0,0,0,0,0,0],"sum_hessian":[6.2898384E3,3.0918704E3,3.1979678E3,2.2945269E3,7.973437E2,1.7407565E3,1.4572112E3,1.7193625E3,5.751641E2,3.0097684E2,4.9636685E2,6.049879E2,1.1357686E3,5.454129E2,9.1179834E2],"tree_param":{"num_deleted":"0","num_feature":"110","num_nodes":"15","size_leaf_vector":"1"}},{"base_weights":[1.2975821E-1,3.0845731E-1,-4.30547E-2,3.968436E-1,5.3928383E-2,1.0349166E-1,-2.1806708E-1,3.314025E-3,5.9155473E-3,-1.3298562E-3,1.67305E-3,-1.2138363E-3,2.2327702E-3,-3.731907E-3,-1.2496912E-3],"categories":[],"categories_nodes":[],"categories_segments":[],"categories_sizes":[],"default_left":[0,0,0,0,0,0,0,0,0,0,0,0,0,0,0],"id":33,"left_children":[1,3,5,7,9,11,13,-1,-1,-1,-1,-1,-1,-1,-1],"loss_changes":[1.9428389E2,6.955853E1,8.206787E1,2.9053802E1,1.6940493E1,4.6944386E1,2.1012398E1,0E0,0E0,0E0,0E0,0E0,0E0,0E0,0E0],"parents":[2147483647,0,0,1,1,2,2,3,3,4,4,5,5,6,6],"right_children":[2,4,6,8,10,12,14,-1,-1,-1,-1,-1,-1,-1,-1],"split_conditions":[1.5E1,1.11E1,5.25E-1,2.3E1,3.2E0,-4.7E0,9.7E0,3.314025E-3,5.9155473E-3,-1.3298562E-3,1.67305E-3,-1.2138363E-3,2.2327702E-3,-3.731907E-3,-1.2496912E-3],"split_indices":[51,109,55,80,25,25,108,0,0,0,0,0,0,0,0],"split_type":[0,0,0,0,0,0,0,0,0,0,0,0,0,0,0],"sum_hessian":[6.289838E3,3.0918704E3,3.1979678E3,2.2945266E3,7.973437E2,1.7407565E3,1.4572112E3,1.7193625E3,5.751641E2,3.0097684E2,4.9636682E2,6.04988E2,1.1357686E3,5.4541296E2,9.117983E2],"tree_param":{"num_deleted":"0","num_feature":"110","num_nodes":"15","size_leaf_vector":"1"}},{"base_weights":[-1.2849672E-1,9.79797E-2,-2.62358E-1,-1.805283E-1,1.8283696E-1,-4.2993006E-1,-1.19263895E-1,-9.26788E-5,-3.5448223E-3,3.3568835E-3,7.3664583E-4,-3.5575044E-3,-5.5190763E-3,-2.7984858E-3,-9.104671E-5],"categories":[],"categories_nodes":[],"categories_segments":[],"categories_sizes":[],"default_left":[0,0,0,0,0,0,0,0,0,0,0,0,0,0,0],"id":34,"left_children":[1,3,5,7,9,11,13,-1,-1,-1,-1,-1,-1,-1,-1],"loss_changes":[1.9068979E2,5.526596E1,9.473764E1,1.627125E1,2.9875088E1,1.6275208E1,3.774149E1,0E0,0E0,0E0,0E0,0E0,0E0,0E0,0E0],"parents":[2147483647,0,0,1,1,2,2,3,3,4,4,5,5,6,6],"right_children":[2,4,6,8,10,12,14,-1,-1,-1,-1,-1,-1,-1,-1],"split_conditions":[4.59E-1,3.71E-1,1.04E1,9.8E0,9.6E0,2.3E1,8E0,-9.26788E-5,-3.5448223E-3,3.3568835E-3,7.3664583E-4,-3.5575044E-3,-5.5190763E-3,-2.7984858E-3,-9.104671E-5],"split_indices":[3,55,109,108,108,80,51,0,0,0,0,0,0,0,0],"split_type":[0,0,0,0,0,0,0,0,0,0,0,0,0,0,0],"sum_hessian":[6.2881353E3,2.336069E3,3.9520662E3,5.452826E2,1.7907865E3,1.8194146E3,2.1326514E3,2.7529935E2,2.6998328E2,7.4526794E2,1.0455184E3,1.1338126E3,6.856019E2,8.6709814E2,1.2655533E3],"tree_param":{"num_deleted":"0","num_feature":"110","num_nodes":"15","size_leaf_vector":"1"}},{"base_weights":[1.2849672E-1,-9.7979695E-2,2.62358E-1,1.805283E-1,-1.8283695E-1,4.299301E-1,1.1926389E-1,9.2678834E-5,3.5448223E-3,-3.356883E-3,-7.366456E-4,3.5575049E-3,5.5190763E-3,2.7984858E-3,9.104657E-5],"categories":[],"categories_nodes":[],"categories_segments":[],"categories_sizes":[],"default_left":[0,0,0,0,0,0,0,0,0,0,0,0,0,0,0],"id":35,"left_children":[1,3,5,7,9,11,13,-1,-1,-1,-1,-1,-1,-1,-1],"loss_changes":[1.906898E2,5.5265957E1,9.473761E1,1.6271254E1,2.9875084E1,1.6275238E1,3.7741493E1,0E0,0E0,0E0,0E0,0E0,0E0,0E0,0E0],"parents":[2147483647,0,0,1,1,2,2,3,3,4,4,5,5,6,6],"right_children":[2,4,6,8,10,12,14,-1,-1,-1,-1,-1,-1,-1,-1],"split_conditions":[4.59E-1,3.71E-1,1.04E1,9.8E0,9.6E0,2.3E1,8E0,9.2678834E-5,3.5448223E-3,-3.356883E-3,-7.366456E-4,3.5575049E-3,5.5190763E-3,2.7984858E-3,9.104657E-5],"split_indices":[3,55,109,108,108,80,51,0,0,0,0,0,0,0,0],"split_type":[0,0,0,0,0,0,0,0,0,0,0,0,0,0,0],"sum_hessian":[6.288135E3,2.336069E3,3.952066E3,5.4528265E2,1.7907864E3,1.8194146E3,2.1326514E3,2.7529935E2,2.6998328E2,7.4526794E2,1.0455184E3,1.1338126E3,6.856019E2,8.6709814E2,1.2655533E3],"tree_param":{"num_deleted":"0","num_feature":"110","num_nodes":"15","size_leaf_vector":"1"}},{"base_weights":[-1.2725021E-1,-3.0292234E-1,4.254497E-2,-3.9015776E-1,-5.1923864E-2,-1.8699975E-1,1.5122187E-1,-3.2583468E-3,-5.8182017E-3,1.3177135E-3,-1.6338445E-3,4.5913196E-4,-3.0802821E-3,3.27418E-3,6.164749E-4],"categories":[],"categories_nodes":[],"categories_segments":[],"categories_sizes":[],"default_left":[0,0,0,0,0,0,0,0,0,0,0,0,0,0,0],"id":36,"left_children":[1,3,5,7,9,11,13,-1,-1,-1,-1,-1,-1,-1,-1],"loss_changes":[1.8755363E2,6.764526E1,7.9806984E1,2.808081E1,1.6364323E1,2.8993477E1,3.4243893E1,0E0,0E0,0E0,0E0,0E0,0E0,0E0,0E0],"parents":[2147483647,0,0,1,1,2,2,3,3,4,4,5,5,6,6],"right_children":[2,4,6,8,10,12,14,-1,-1,-1,-1,-1,-1,-1,-1],"split_conditions":[1.5E1,1.11E1,-1.9E0,2.3E1,3.2E0,-4.8E0,9.6E0,-3.2583468E-3,-5.8182017E-3,1.3177135E-3,-1.6338445E-3,4.5913196E-4,-3.0802821E-3,3.27418E-3,6.164749E-4],"split_indices":[51,109,77,80,25,25,108,0,0,0,0,0,0,0,0],"split_type":[0,0,0,0,0,0,0,0,0,0,0,0,0,0,0],"sum_hessian":[6.286347E3,3.089318E3,3.1970293E3,2.2921265E3,7.971915E2,1.0270334E3,2.1699958E3,1.7181912E3,5.7393536E2,3.0097705E2,4.9621445E2,3.514011E2,6.756323E2,7.30473E2,1.4395228E3],"tree_param":{"num_deleted":"0","num_feature":"110","num_nodes":"15","size_leaf_vector":"1"}},{"base_weights":[1.272502E-1,3.029223E-1,-4.254497E-2,3.9015773E-1,5.1923834E-2,1.8699972E-1,-1.5122186E-1,3.2583466E-3,5.818201E-3,-1.317714E-3,1.6338443E-3,-4.59132E-4,3.080282E-3,-3.2741793E-3,-6.1647495E-4],"categories":[],"categories_nodes":[],"categories_segments":[],"categories_sizes":[],"default_left":[0,0,0,0,0,0,0,0,0,0,0,0,0,0,0],"id":37,"left_children":[1,3,5,7,9,11,13,-1,-1,-1,-1,-1,-1,-1,-1],"loss_changes":[1.875536E2,6.764523E1,7.980696E1,2.808081E1,1.6364326E1,2.8993465E1,3.4243885E1,0E0,0E0,0E0,0E0,0E0,0E0,0E0,0E0],"parents":[2147483647,0,0,1,1,2,2,3,3,4,4,5,5,6,6],"right_children":[2,4,6,8,10,12,14,-1,-1,-1,-1,-1,-1,-1,-1],"split_conditions":[1.5E1,1.11E1,-1.9E0,2.3E1,3.2E0,-4.8E0,9.6E0,3.2583466E-3,5.818201E-3,-1.317714E-3,1.6338443E-3,-4.59132E-4,3.080282E-3,-3.2741793E-3,-6.1647495E-4],"split_indices":[51,109,77,80,25,25,108,0,0,0,0,0,0,0,0],"split_type":[0,0,0,0,0,0,0,0,0,0,0,0,0,0,0],"sum_hessian":[6.2863477E3,3.089318E3,3.1970293E3,2.2921267E3,7.971915E2,1.0270334E3,2.1699958E3,1.7181913E3,5.7393536E2,3.0097705E2,4.9621448E2,3.514011E2,6.756323E2,7.30473E2,1.439523E3],"tree_param":{"num_deleted":"0","num_feature":"110","num_nodes":"15","size_leaf_vector":"1"}},{"base_weights":[-1.2601775E-1,9.647551E-2,-2.5757992E-1,-8.8237405E-2,2.2091375E-1,-4.2273155E-1,-1.1669915E-1,1.2009008E-3,-2.0881535E-3,3.883257E-3,1.2258234E-3,-3.2425933E-3,-5.1356554E-3,-2.7468668E-3,-8.370652E-5],"categories":[],"categories_nodes":[],"categories_segments":[],"categories_sizes":[],"default_left":[0,0,0,0,0,0,0,0,0,0,0,0,0,0,0],"id":38,"left_children":[1,3,5,7,9,11,13,-1,-1,-1,-1,-1,-1,-1,-1],"loss_changes":[1.8401025E2,5.372039E1,9.1857056E1,2.3665642E1,2.293634E1,1.6095184E1,3.650447E1,0E0,0E0,0E0,0E0,0E0,0E0,0E0,0E0],"parents":[2147483647,0,0,1,1,2,2,3,3,4,4,5,5,6,6],"right_children":[2,4,6,8,10,12,14,-1,-1,-1,-1,-1,-1,-1,-1],"split_conditions":[4.59E-1,4.65E-1,1.04E1,9.5E0,9.5E0,1.08E1,8E0,1.2009008E-3,-2.0881535E-3,3.883257E-3,1.2258234E-3,-3.2425933E-3,-5.1356554E-3,-2.7468668E-3,-8.370652E-5],"split_indices":[3,55,109,108,108,108,51,0,0,0,0,0,0,0,0],"split_type":[0,0,0,0,0,0,0,0,0,0,0,0,0,0,0],"sum_hessian":[6.284437E3,2.33531E3,3.9491267E3,9.401164E2,1.3951937E3,1.8170432E3,2.1320835E3,3.4465164E2,5.954647E2,5.1516376E2,8.800299E2,8.7405676E2,9.4298645E2,8.66636E2,1.2654475E3],"tree_param":{"num_deleted":"0","num_feature":"110","num_nodes":"15","size_leaf_vector":"1"}},{"base_weights":[1.2601778E-1,-9.6475475E-2,2.5757992E-1,8.823742E-2,-2.209137E-1,4.2273158E-1,1.1669917E-1,-1.2009005E-3,2.0881535E-3,-3.8832563E-3,-1.2258231E-3,3.242594E-3,5.1356554E-3,2.7468668E-3,8.370656E-5],"categories":[],"categories_nodes":[],"categories_segments":[],"categories_sizes":[],"default_left":[0,0,0,0,0,0,0,0,0,0,0,0,0,0,0],"id":39,"left_children":[1,3,5,7,9,11,13,-1,-1,-1,-1,-1,-1,-1,-1],"loss_changes":[1.8401022E2,5.3720375E1,9.1857056E1,2.366564E1,2.2936333E1,1.6095154E1,3.650448E1,0E0,0E0,0E0,0E0,0E0,0E0,0E0,0E0],"parents":[2147483647,0,0,1,1,2,2,3,3,4,4,5,5,6,6],"right_children":[2,4,6,8,10,12,14,-1,-1,-1,-1,-1,-1,-1,-1],"split_conditions":[4.59E-1,4.65E-1,1.04E1,9.5E0,9.5E0,1.08E1,8E0,-1.2009005E-3,2.0881535E-3,-3.8832563E-3,-1.2258231E-3,3.242594E-3,5.1356554E-3,2.7468668E-3,8.370656E-5],"split_indices":[3,55,109,108,108,108,51,0,0,0,0,0,0,0,0],"split_type":[0,0,0,0,0,0,0,0,0,0,0,0,0,0,0],"sum_hessian":[6.284437E3,2.33531E3,3.9491267E3,9.401164E2,1.3951937E3,1.8170432E3,2.1320835E3,3.4465164E2,5.954647E2,5.1516376E2,8.8002997E2,8.7405676E2,9.429865E2,8.66636E2,1.2654475E3],"tree_param":{"num_deleted":"0","num_feature":"110","num_nodes":"15","size_leaf_vector":"1"}},{"base_weights":[-1.2479788E-1,-2.9742226E-1,4.195606E-2,-3.835049E-1,-4.997458E-2,-8.9207456E-2,2.2769338E-1,-3.1993138E-3,-5.731842E-3,1.3055439E-3,-1.5955217E-3,1.2728891E-3,-2.0345687E-3,3.754783E-3,1.3800844E-3],"categories":[],"categories_nodes":[],"categories_segments":[],"categories_sizes":[],"default_left":[0,0,0,0,0,0,0,0,0,0,0,0,0,0,0],"id":40,"left_children":[1,3,5,7,9,11,13,-1,-1,-1,-1,-1,-1,-1,-1],"loss_changes":[1.8088763E2,6.5747986E1,7.7904625E1,2.7436768E1,1.5807304E1,4.6390297E1,1.7489784E1,0E0,0E0,0E0,0E0,0E0,0E0,0E0,0E0],"parents":[2147483647,0,0,1,1,2,2,3,3,4,4,5,5,6,6],"right_children":[2,4,6,8,10,12,14,-1,-1,-1,-1,-1,-1,-1,-1],"split_conditions":[1.5E1,1.11E1,5.45E-1,2.3E1,3.2E0,-4.7E0,9.7E0,-3.1993138E-3,-5.731842E-3,1.3055439E-3,-1.5955217E-3,1.2728891E-3,-2.0345687E-3,3.754783E-3,1.3800844E-3],"split_indices":[51,109,55,80,25,25,108,0,0,0,0,0,0,0,0],"split_type":[0,0,0,0,0,0,0,0,0,0,0,0,0,0,0],"sum_hessian":[6.2824863E3,3.086522E3,3.195964E3,2.289497E3,7.97025E2,1.8734768E3,1.3224874E3,1.7167819E3,5.727152E2,3.0097598E2,4.9604907E2,6.4711505E2,1.2263617E3,4.9825867E2,8.2422876E2],"tree_param":{"num_deleted":"0","num_feature":"110","num_nodes":"15","size_leaf_vector":"1"}},{"base_weights":[1.24797866E-1,2.9742223E-1,-4.195605E-2,3.8350487E-1,4.997454E-2,8.9207485E-2,-2.276934E-1,3.1993135E-3,5.731841E-3,-1.305544E-3,1.5955211E-3,-1.2728887E-3,2.0345687E-3,-3.7547834E-3,-1.3800844E-3],"categories":[],"categories_nodes":[],"categories_segments":[],"categories_sizes":[],"default_left":[0,0,0,0,0,0,0,0,0,0,0,0,0,0,0],"id":41,"left_children":[1,3,5,7,9,11,13,-1,-1,-1,-1,-1,-1,-1,-1],"loss_changes":[1.8088757E2,6.574802E1,7.790464E1,2.7436737E1,1.5807301E1,4.639029E1,1.74898E1,0E0,0E0,0E0,0E0,0E0,0E0,0E0,0E0],"parents":[2147483647,0,0,1,1,2,2,3,3,4,4,5,5,6,6],"right_children":[2,4,6,8,10,12,14,-1,-1,-1,-1,-1,-1,-1,-1],"split_conditions":[1.5E1,1.11E1,5.45E-1,2.3E1,3.2E0,-4.7E0,9.7E0,3.1993135E-3,5.731841E-3,-1.305544E-3,1.5955211E-3,-1.2728887E-3,2.0345687E-3,-3.7547834E-3,-1.3800844E-3],"split_indices":[51,109,55,80,25,25,108,0,0,0,0,0,0,0,0],"split_type":[0,0,0,0,0,0,0,0,0,0,0,0,0,0,0],"sum_hessian":[6.2824863E3,3.086522E3,3.195964E3,2.289497E3,7.97025E2,1.8734768E3,1.3224874E3,1.7167817E3,5.727152E2,3.0097598E2,4.9604904E2,6.4711505E2,1.2263618E3,4.9825864E2,8.2422876E2],"tree_param":{"num_deleted":"0","num_feature":"110","num_nodes":"15","size_leaf_vector":"1"}},{"base_weights":[-1.2359045E-1,9.493174E-2,-2.5286365E-1,-1.7569289E-1,1.7739463E-1,-4.1565788E-1,-1.14146695E-1,-8.718162E-5,-3.4541646E-3,3.2499966E-3,7.209992E-4,-3.1837209E-3,-5.0546573E-3,-2.6963581E-3,-7.5832984E-5],"categories":[],"categories_nodes":[],"categories_segments":[],"categories_sizes":[],"default_left":[0,0,0,0,0,0,0,0,0,0,0,0,0,0,0],"id":42,"left_children":[1,3,5,7,9,11,13,-1,-1,-1,-1,-1,-1,-1,-1],"loss_changes":[1.7747015E2,5.2151634E1,8.90844E1,1.5469164E1,2.7805447E1,1.5701263E1,3.5331627E1,0E0,0E0,0E0,0E0,0E0,0E0,0E0,0E0],"parents":[2147483647,0,0,1,1,2,2,3,3,4,4,5,5,6,6],"right_children":[2,4,6,8,10,12,14,-1,-1,-1,-1,-1,-1,-1,-1],"split_conditions":[4.59E-1,3.71E-1,1.04E1,9.8E0,9.6E0,1.08E1,8E0,-8.718162E-5,-3.4541646E-3,3.2499966E-3,7.209992E-4,-3.1837209E-3,-5.0546573E-3,-2.6963581E-3,-7.5832984E-5],"split_indices":[3,55,109,108,108,108,51,0,0,0,0,0,0,0,0],"split_type":[0,0,0,0,0,0,0,0,0,0,0,0,0,0,0],"sum_hessian":[6.2804873E3,2.3345134E3,3.9459739E3,5.4495703E2,1.7895565E3,1.8145148E3,2.131459E3,2.7523303E2,2.6972397E2,7.442124E2,1.0453441E3,8.7317694E2,9.413379E2,8.661334E2,1.2653257E3],"tree_param":{"num_deleted":"0","num_feature":"110","num_nodes":"15","size_leaf_vector":"1"}},{"base_weights":[1.23590454E-1,-9.493175E-2,2.5286365E-1,1.7569284E-1,-1.7739464E-1,4.1565794E-1,1.1414669E-1,8.7180924E-5,3.4541646E-3,-3.2499966E-3,-7.209993E-4,3.1837209E-3,5.054658E-3,2.696358E-3,7.583296E-5],"categories":[],"categories_nodes":[],"categories_segments":[],"categories_sizes":[],"default_left":[0,0,0,0,0,0,0,0,0,0,0,0,0,0,0],"id":43,"left_children":[1,3,5,7,9,11,13,-1,-1,-1,-1,-1,-1,-1,-1],"loss_changes":[1.7747018E2,5.215162E1,8.9084366E1,1.5469166E1,2.7805443E1,1.5701324E1,3.5331627E1,0E0,0E0,0E0,0E0,0E0,0E0,0E0,0E0],"parents":[2147483647,0,0,1,1,2,2,3,3,4,4,5,5,6,6],"right_children":[2,4,6,8,10,12,14,-1,-1,-1,-1,-1,-1,-1,-1],"split_conditions":[4.59E-1,3.71E-1,1.04E1,9.8E0,9.6E0,1.08E1,8E0,8.7180924E-5,3.4541646E-3,-3.2499966E-3,-7.209993E-4,3.1837209E-3,5.054658E-3,2.696358E-3,7.583296E-5],"split_indices":[3,55,109,108,108,108,51,0,0,0,0,0,0,0,0],"split_type":[0,0,0,0,0,0,0,0,0,0,0,0,0,0,0],"sum_hessian":[6.2804873E3,2.3345134E3,3.9459739E3,5.44957E2,1.7895565E3,1.8145148E3,2.1314592E3,2.7523303E2,2.6972397E2,7.442124E2,1.0453441E3,8.7317694E2,9.413378E2,8.661335E2,1.2653257E3],"tree_param":{"num_deleted":"0","num_feature":"110","num_nodes":"15","size_leaf_vector":"1"}},{"base_weights":[-1.22397E-1,-2.9203466E-1,4.136572E-2,-3.76992E-1,-4.8070446E-2,-8.7930754E-2,2.244755E-1,-3.1415438E-3,-5.6474176E-3,1.2934988E-3,-1.5580103E-3,1.2505983E-3,-2.0034327E-3,3.695367E-3,1.3651478E-3],"categories":[],"categories_nodes":[],"categories_segments":[],"categories_sizes":[],"default_left":[0,0,0,0,0,0,0,0,0,0,0,0,0,0,0],"id":44,"left_children":[1,3,5,7,9,11,13,-1,-1,-1,-1,-1,-1,-1,-1],"loss_changes":[1.744564E2,6.3913086E1,7.568439E1,2.681186E1,1.5269848E1,4.4892185E1,1.6830399E1,0E0,0E0,0E0,0E0,0E0,0E0,0E0,0E0],"parents":[2147483647,0,0,1,1,2,2,3,3,4,4,5,5,6,6],"right_children":[2,4,6,8,10,12,14,-1,-1,-1,-1,-1,-1,-1,-1],"split_conditions":[1.5E1,1.11E1,5.45E-1,2.3E1,3.2E0,-4.7E0,9.7E0,-3.1415438E-3,-5.6474176E-3,1.2934988E-3,-1.5580103E-3,1.2505983E-3,-2.0034327E-3,3.695367E-3,1.3651478E-3],"split_indices":[51,109,55,80,25,25,108,0,0,0,0,0,0,0,0],"split_type":[0,0,0,0,0,0,0,0,0,0,0,0,0,0,0],"sum_hessian":[6.2784204E3,3.0835085E3,3.194912E3,2.286663E3,7.968455E2,1.8729293E3,1.3219827E3,1.7152598E3,5.7140326E2,3.0097403E2,4.958715E2,6.4697614E2,1.2259531E3,4.9781146E2,8.2417126E2],"tree_param":{"num_deleted":"0","num_feature":"110","num_nodes":"15","size_leaf_vector":"1"}},{"base_weights":[1.22397006E-1,2.920347E-1,-4.136572E-2,3.7699202E-1,4.8070442E-2,8.7930754E-2,-2.244755E-1,3.1415443E-3,5.6474176E-3,-1.2934995E-3,1.5580107E-3,-1.2505983E-3,2.0034327E-3,-3.6953676E-3,-1.3651473E-3],"categories":[],"categories_nodes":[],"categories_segments":[],"categories_sizes":[],"default_left":[0,0,0,0,0,0,0,0,0,0,0,0,0,0,0],"id":45,"left_children":[1,3,5,7,9,11,13,-1,-1,-1,-1,-1,-1,-1,-1],"loss_changes":[1.7445645E2,6.3913055E1,7.568438E1,2.681186E1,1.5269859E1,4.4892185E1,1.6830414E1,0E0,0E0,0E0,0E0,0E0,0E0,0E0,0E0],"parents":[2147483647,0,0,1,1,2,2,3,3,4,4,5,5,6,6],"right_children":[2,4,6,8,10,12,14,-1,-1,-1,-1,-1,-1,-1,-1],"split_conditions":[1.5E1,1.11E1,5.45E-1,2.3E1,3.2E0,-4.7E0,9.7E0,3.1415443E-3,5.6474176E-3,-1.2934995E-3,1.5580107E-3,-1.2505983E-3,2.0034327E-3,-3.6953676E-3,-1.3651473E-3],"split_indices":[51,109,55,80,25,25,108,0,0,0,0,0,0,0,0],"split_type":[0,0,0,0,0,0,0,0,0,0,0,0,0,0,0],"sum_hessian":[6.2784204E3,3.0835085E3,3.194912E3,2.286663E3,7.968455E2,1.8729293E3,1.3219828E3,1.7152598E3,5.7140326E2,3.0097403E2,4.9587146E2,6.4697614E2,1.2259531E3,4.9781146E2,8.241713E2],"tree_param":{"num_deleted":"0","num_feature":"110","num_nodes":"15","size_leaf_vector":"1"}},{"base_weights":[-1.21215634E-1,-2.2870092E-1,1.3259317E-1,-8.6404815E-2,-3.905909E-1,-1.4154439E-2,2.790854E-1,-2.403082E-3,3.0012242E-4,-2.688949E-3,-4.7833673E-3,1.854778E-3,-1.4970911E-3,3.8781133E-3,1.6730943E-3],"categories":[],"categories_nodes":[],"categories_segments":[],"categories_sizes":[],"default_left":[0,0,0,0,0,0,0,0,0,0,0,0,0,0,0],"id":46,"left_children":[1,3,5,7,9,11,13,-1,-1,-1,-1,-1,-1,-1,-1],"loss_changes":[1.7127895E2,1.0155986E2,4.0163822E1,4.20834E1,2.1898132E1,2.5308302E1,1.1297226E1,0E0,0E0,0E0,0E0,0E0,0E0,0E0,0E0],"parents":[2147483647,0,0,1,1,2,2,3,3,4,4,5,5,6,6],"right_children":[2,4,6,8,10,12,14,-1,-1,-1,-1,-1,-1,-1,-1],"split_conditions":[2E1,1.4E1,0E0,9E0,1.06E1,9.5E0,9.7E0,-2.403082E-3,3.0012242E-4,-2.688949E-3,-4.7833673E-3,1.854778E-3,-1.4970911E-3,3.8781133E-3,1.6730943E-3],"split_indices":[28,80,77,51,108,108,108,0,0,0,0,0,0,0,0],"split_type":[0,0,0,0,0,0,0,0,0,0,0,0,0,0,0],"sum_hessian":[6.276279E3,4.4091504E3,1.8671285E3,2.3473972E3,2.0617532E3,9.332025E2,9.33926E2,1.0104791E3,1.3369181E3,8.654761E2,1.196277E3,3.7725232E2,5.559502E2,4.721703E2,4.617557E2],"tree_param":{"num_deleted":"0","num_feature":"110","num_nodes":"15","size_leaf_vector":"1"}},{"base_weights":[1.2121562E-1,2.287009E-1,-1.325932E-1,8.640481E-2,3.905909E-1,1.4154427E-2,-2.7908543E-1,2.4030823E-3,-3.001227E-4,2.6889488E-3,4.7833673E-3,-1.8547784E-3,1.4970911E-3,-3.8781133E-3,-1.6730949E-3],"categories":[],"categories_nodes":[],"categories_segments":[],"categories_sizes":[],"default_left":[0,0,0,0,0,0,0,0,0,0,0,0,0,0,0],"id":47,"left_children":[1,3,5,7,9,11,13,-1,-1,-1,-1,-1,-1,-1,-1],"loss_changes":[1.7127895E2,1.01559906E2,4.016383E1,4.2083416E1,2.1898102E1,2.5308306E1,1.1297211E1,0E0,0E0,0E0,0E0,0E0,0E0,0E0,0E0],"parents":[2147483647,0,0,1,1,2,2,3,3,4,4,5,5,6,6],"right_children":[2,4,6,8,10,12,14,-1,-1,-1,-1,-1,-1,-1,-1],"split_conditions":[2E1,1.4E1,0E0,9E0,1.06E1,9.5E0,9.7E0,2.4030823E-3,-3.001227E-4,2.6889488E-3,4.7833673E-3,-1.8547784E-3,1.4970911E-3,-3.8781133E-3,-1.6730949E-3],"split_indices":[28,80,77,51,108,108,108,0,0,0,0,0,0,0,0],"split_type":[0,0,0,0,0,0,0,0,0,0,0,0,0,0,0],"sum_hessian":[6.276279E3,4.4091504E3,1.8671285E3,2.3473972E3,2.061753E3,9.332025E2,9.33926E2,1.0104791E3,1.3369181E3,8.65476E2,1.196277E3,3.7725232E2,5.559502E2,4.7217032E2,4.6175568E2],"tree_param":{"num_deleted":"0","num_feature":"110","num_nodes":"15","size_leaf_vector":"1"}},{"base_weights":[-1.2004422E-1,-2.8678083E-1,4.0813737E-2,-3.7071046E-1,-4.601433E-2,-1.7970371E-1,1.4519356E-1,-3.0867222E-3,-5.5636745E-3,1.2838555E-3,-1.5195288E-3,6.2353945E-5,-3.191472E-3,3.1244627E-3,6.033744E-4],"categories":[],"categories_nodes":[],"categories_segments":[],"categories_sizes":[],"default_left":[0,0,0,0,0,0,0,0,0,0,0,0,0,0,0],"id":48,"left_children":[1,3,5,7,9,11,13,-1,-1,-1,-1,-1,-1,-1,-1],"loss_changes":[1.6831833E2,6.225061E1,7.356218E1,2.614389E1,1.4756594E1,2.662576E1,3.0763721E1,0E0,0E0,0E0,0E0,0E0,0E0,0E0,0E0],"parents":[2147483647,0,0,1,1,2,2,3,3,4,4,5,5,6,6],"right_children":[2,4,6,8,10,12,14,-1,-1,-1,-1,-1,-1,-1,-1],"split_conditions":[1.5E1,1.11E1,-1.9E0,2.3E1,3.2E0,-3.7E0,9.6E0,-3.0867222E-3,-5.5636745E-3,1.2838555E-3,-1.5195288E-3,6.2353945E-5,-3.191472E-3,3.1244627E-3,6.033744E-4],"split_indices":[51,109,77,80,25,25,108,0,0,0,0,0,0,0,0],"split_type":[0,0,0,0,0,0,0,0,0,0,0,0,0,0,0],"sum_hessian":[6.274201E3,3.0804214E3,3.19378E3,2.2837732E3,7.9664813E2,1.0258347E3,2.1679453E3,1.7137704E3,5.7000275E2,3.0096945E2,4.9567868E2,4.4003336E2,5.858014E2,7.2879584E2,1.4391495E3],"tree_param":{"num_deleted":"0","num_feature":"110","num_nodes":"15","size_leaf_vector":"1"}},{"base_weights":[1.2004423E-1,2.8678086E-1,-4.081375E-2,3.707105E-1,4.6014372E-2,1.7970373E-1,-1.4519359E-1,3.0867225E-3,5.563675E-3,-1.2838553E-3,1.5195294E-3,-6.235334E-5,3.191472E-3,-3.1244627E-3,-6.0337473E-4],"categories":[],"categories_nodes":[],"categories_segments":[],"categories_sizes":[],"default_left":[0,0,0,0,0,0,0,0,0,0,0,0,0,0,0],"id":49,"left_children":[1,3,5,7,9,11,13,-1,-1,-1,-1,-1,-1,-1,-1],"loss_changes":[1.6831837E2,6.225058E1,7.3562195E1,2.614392E1,1.4756597E1,2.6625748E1,3.0763718E1,0E0,0E0,0E0,0E0,0E0,0E0,0E0,0E0],"parents":[2147483647,0,0,1,1,2,2,3,3,4,4,5,5,6,6],"right_children":[2,4,6,8,10,12,14,-1,-1,-1,-1,-1,-1,-1,-1],"split_conditions":[1.5E1,1.11E1,-1.9E0,2.3E1,3.2E0,-3.7E0,9.6E0,3.0867225E-3,5.563675E-3,-1.2838553E-3,1.5195294E-3,-6.235334E-5,3.191472E-3,-3.1244627E-3,-6.0337473E-4],"split_indices":[51,109,77,80,25,25,108,0,0,0,0,0,0,0,0],"split_type":[0,0,0,0,0,0,0,0,0,0,0,0,0,0,0],"sum_hessian":[6.274201E3,3.0804214E3,3.19378E3,2.2837732E3,7.9664813E2,1.0258347E3,2.1679453E3,1.7137704E3,5.7000275E2,3.0096945E2,4.9567868E2,4.4003333E2,5.858014E2,7.2879584E2,1.4391495E3],"tree_param":{"num_deleted":"0","num_feature":"110","num_nodes":"15","size_leaf_vector":"1"}},{"base_weights":[-1.1888953E-1,-2.2458191E-1,1.3058868E-1,-8.449939E-2,-3.841115E-1,-1.3802698E-2,2.747764E-1,-2.3573409E-3,2.9839188E-4,-2.6394539E-3,-4.7082836E-3,1.828701E-3,-1.4734209E-3,3.8151857E-3,1.6514473E-3],"categories":[],"categories_nodes":[],"categories_segments":[],"categories_sizes":[],"default_left":[0,0,0,0,0,0,0,0,0,0,0,0,0,0,0],"id":50,"left_children":[1,3,5,7,9,11,13,-1,-1,-1,-1,-1,-1,-1,-1],"loss_changes":[1.6543242E2,9.844217E1,3.888061E1,4.0601093E1,2.1341705E1,2.4556019E1,1.0871307E1,0E0,0E0,0E0,0E0,0E0,0E0,0E0,0E0],"parents":[2147483647,0,0,1,1,2,2,3,3,4,4,5,5,6,6],"right_children":[2,4,6,8,10,12,14,-1,-1,-1,-1,-1,-1,-1,-1],"split_conditions":[2E1,1.4E1,0E0,9E0,1.06E1,9.5E0,9.7E0,-2.3573409E-3,2.9839188E-4,-2.6394539E-3,-4.7082836E-3,1.828701E-3,-1.4734209E-3,3.8151857E-3,1.6514473E-3],"split_indices":[28,80,77,51,108,108,108,0,0,0,0,0,0,0,0],"split_type":[0,0,0,0,0,0,0,0,0,0,0,0,0,0,0],"sum_hessian":[6.2718853E3,4.405555E3,1.8663302E3,2.3465686E3,2.0589866E3,9.329583E2,9.333718E2,1.00982275E3,1.336746E3,8.6473785E2,1.1942485E3,3.771434E2,5.558149E2,4.716616E2,4.6171027E2],"tree_param":{"num_deleted":"0","num_feature":"110","num_nodes":"15","size_leaf_vector":"1"}},{"base_weights":[1.1888955E-1,2.2458193E-1,-1.3058865E-1,8.449939E-2,3.841115E-1,1.380269E-2,-2.747763E-1,2.3573409E-3,-2.983921E-4,2.6394539E-3,4.7082836E-3,-1.8287014E-3,1.473421E-3,-3.815185E-3,-1.6514465E-3],"categories":[],"categories_nodes":[],"categories_segments":[],"categories_sizes":[],"default_left":[0,0,0,0,0,0,0,0,0,0,0,0,0,0,0],"id":51,"left_children":[1,3,5,7,9,11,13,-1,-1,-1,-1,-1,-1,-1,-1],"loss_changes":[1.654324E2,9.844217E1,3.8880577E1,4.060111E1,2.1341705E1,2.4556026E1,1.0871315E1,0E0,0E0,0E0,0E0,0E0,0E0,0E0,0E0],"parents":[2147483647,0,0,1,1,2,2,3,3,4,4,5,5,6,6],"right_children":[2,4,6,8,10,12,14,-1,-1,-1,-1,-1,-1,-1,-1],"split_conditions":[2E1,1.4E1,0E0,9E0,1.06E1,9.5E0,9.7E0,2.3573409E-3,-2.983921E-4,2.6394539E-3,4.7082836E-3,-1.8287014E-3,1.473421E-3,-3.815185E-3,-1.6514465E-3],"split_indices":[28,80,77,51,108,108,108,0,0,0,0,0,0,0,0],"split_type":[0,0,0,0,0,0,0,0,0,0,0,0,0,0,0],"sum_hessian":[6.2718853E3,4.405555E3,1.8663302E3,2.3465686E3,2.0589866E3,9.329583E2,9.333719E2,1.00982275E3,1.336746E3,8.647379E2,1.1942485E3,3.771434E2,5.558149E2,4.716616E2,4.6171027E2],"tree_param":{"num_deleted":"0","num_feature":"110","num_nodes":"15","size_leaf_vector":"1"}},{"base_weights":[-1.17743194E-1,9.1378346E-2,-2.4160399E-1,-1.7036815E-1,1.7114955E-1,-3.9995566E-1,-1.07044615E-1,-8.6053275E-5,-3.3496337E-3,3.251057E-3,7.854852E-4,-3.053818E-3,-4.8743715E-3,-2.5696913E-3,-4.437175E-5],"categories":[],"categories_nodes":[],"categories_segments":[],"categories_sizes":[],"default_left":[0,0,0,0,0,0,0,0,0,0,0,0,0,0,0],"id":52,"left_children":[1,3,5,7,9,11,13,-1,-1,-1,-1,-1,-1,-1,-1],"loss_changes":[1.624448E2,4.8747093E1,8.3875824E1,1.4521244E1,2.5475838E1,1.4816956E1,3.277356E1,0E0,0E0,0E0,0E0,0E0,0E0,0E0,0E0],"parents":[2147483647,0,0,1,1,2,2,3,3,4,4,5,5,6,6],"right_children":[2,4,6,8,10,12,14,-1,-1,-1,-1,-1,-1,-1,-1],"split_conditions":[4.59E-1,3.71E-1,1.04E1,9.8E0,9.5E0,1.08E1,8E0,-8.6053275E-5,-3.3496337E-3,3.251057E-3,7.854852E-4,-3.053818E-3,-4.8743715E-3,-2.5696913E-3,-4.437175E-5],"split_indices":[3,55,109,108,108,108,51,0,0,0,0,0,0,0,0],"split_type":[0,0,0,0,0,0,0,0,0,0,0,0,0,0,0],"sum_hessian":[6.269673E3,2.3322534E3,3.9374197E3,5.44499E2,1.7877544E3,1.8078914E3,2.1295283E3,2.7514304E2,2.69356E2,6.704951E2,1.1172593E3,8.708887E2,9.370027E2,8.646474E2,1.264881E3],"tree_param":{"num_deleted":"0","num_feature":"110","num_nodes":"15","size_leaf_vector":"1"}},{"base_weights":[1.1774319E-1,-9.137836E-2,2.4160399E-1,1.7036815E-1,-1.7114957E-1,3.9995566E-1,1.0704459E-1,8.605348E-5,3.3496334E-3,-3.251057E-3,-7.8548555E-4,3.0538184E-3,4.874372E-3,2.5696908E-3,4.4371536E-5],"categories":[],"categories_nodes":[],"categories_segments":[],"categories_sizes":[],"default_left":[0,0,0,0,0,0,0,0,0,0,0,0,0,0,0],"id":53,"left_children":[1,3,5,7,9,11,13,-1,-1,-1,-1,-1,-1,-1,-1],"loss_changes":[1.6244482E2,4.8747097E1,8.3875854E1,1.4521238E1,2.5475822E1,1.4816956E1,3.277356E1,0E0,0E0,0E0,0E0,0E0,0E0,0E0,0E0],"parents":[2147483647,0,0,1,1,2,2,3,3,4,4,5,5,6,6],"right_children":[2,4,6,8,10,12,14,-1,-1,-1,-1,-1,-1,-1,-1],"split_conditions":[4.59E-1,3.71E-1,1.04E1,9.8E0,9.5E0,1.08E1,8E0,8.605348E-5,3.3496334E-3,-3.251057E-3,-7.8548555E-4,3.0538184E-3,4.874372E-3,2.5696908E-3,4.4371536E-5],"split_indices":[3,55,109,108,108,108,51,0,0,0,0,0,0,0,0],"split_type":[0,0,0,0,0,0,0,0,0,0,0,0,0,0,0],"sum_hessian":[6.269673E3,2.3322534E3,3.9374197E3,5.44499E2,1.7877544E3,1.8078914E3,2.1295283E3,2.7514304E2,2.69356E2,6.704951E2,1.1172593E3,8.708886E2,9.370027E2,8.646474E2,1.2648809E3],"tree_param":{"num_deleted":"0","num_feature":"110","num_nodes":"15","size_leaf_vector":"1"}},{"base_weights":[-1.16612025E-1,-2.7920812E-1,4.0091693E-2,-3.6179358E-1,-4.268077E-2,-8.47492E-2,2.1691202E-1,-3.0072886E-3,-5.449564E-3,1.2749156E-3,-1.4612176E-3,-1.8616199E-3,1.3428133E-3,9.178169E-4,3.1109597E-3],"categories":[],"categories_nodes":[],"categories_segments":[],"categories_sizes":[],"default_left":[0,0,0,0,0,0,0,0,0,0,0,0,0,0,0],"id":54,"left_children":[1,3,5,7,9,11,13,-1,-1,-1,-1,-1,-1,-1,-1],"loss_changes":[1.5972379E2,6.0078827E1,7.0498924E1,2.5338928E1,1.4053457E1,4.161195E1,1.5547218E1,0E0,0E0,0E0,0E0,0E0,0E0,0E0,0E0],"parents":[2147483647,0,0,1,1,2,2,3,3,4,4,5,5,6,6],"right_children":[2,4,6,8,10,12,14,-1,-1,-1,-1,-1,-1,-1,-1],"split_conditions":[1.5E1,1.11E1,5.45E-1,2.3E1,3.2E0,2.6E1,1.09E1,-3.0072886E-3,-5.449564E-3,1.2749156E-3,-1.4612176E-3,-1.8616199E-3,1.3428133E-3,9.178169E-4,3.1109597E-3],"split_indices":[51,109,55,80,25,51,109,0,0,0,0,0,0,0,0],"split_type":[0,0,0,0,0,0,0,0,0,0,0,0,0,0,0],"sum_hessian":[6.2673E3,3.0754375E3,3.191862E3,2.2791309E3,7.963067E2,1.871232E3,1.32063E3,1.7112562E3,5.678746E2,3.0096017E2,4.9534653E2,1.2791335E3,5.920985E2,5.6798914E2,7.5264087E2],"tree_param":{"num_deleted":"0","num_feature":"110","num_nodes":"15","size_leaf_vector":"1"}},{"base_weights":[1.1661203E-1,2.7920812E-1,-4.0091675E-2,3.6179358E-1,4.2680755E-2,8.474921E-2,-2.1691199E-1,3.0072883E-3,5.449564E-3,-1.2749159E-3,1.4612176E-3,1.8616201E-3,-1.3428134E-3,-9.1781653E-4,-3.1109594E-3],"categories":[],"categories_nodes":[],"categories_segments":[],"categories_sizes":[],"default_left":[0,0,0,0,0,0,0,0,0,0,0,0,0,0,0],"id":55,"left_children":[1,3,5,7,9,11,13,-1,-1,-1,-1,-1,-1,-1,-1],"loss_changes":[1.5972375E2,6.0078842E1,7.049892E1,2.5338898E1,1.4053459E1,4.1611958E1,1.5547207E1,0E0,0E0,0E0,0E0,0E0,0E0,0E0,0E0],"parents":[2147483647,0,0,1,1,2,2,3,3,4,4,5,5,6,6],"right_children":[2,4,6,8,10,12,14,-1,-1,-1,-1,-1,-1,-1,-1],"split_conditions":[1.5E1,1.11E1,5.45E-1,2.3E1,3.2E0,2.6E1,1.09E1,3.0072883E-3,5.449564E-3,-1.2749159E-3,1.4612176E-3,1.8616201E-3,-1.3428134E-3,-9.1781653E-4,-3.1109594E-3],"split_indices":[51,109,55,80,25,51,109,0,0,0,0,0,0,0,0],"split_type":[0,0,0,0,0,0,0,0,0,0,0,0,0,0,0],"sum_hessian":[6.2672993E3,3.0754375E3,3.191862E3,2.2791309E3,7.963067E2,1.871232E3,1.3206299E3,1.7112563E3,5.678745E2,3.0096017E2,4.9534656E2,1.2791335E3,5.9209845E2,5.6798914E2,7.526408E2],"tree_param":{"num_deleted":"0","num_feature":"110","num_nodes":"15","size_leaf_vector":"1"}},{"base_weights":[-1.1549066E-1,-2.1859036E-1,1.2769657E-1,-8.143651E-2,-3.7501276E-1,-1.3721587E-2,2.689821E-1,-2.2866512E-3,2.977606E-4,-2.570131E-3,-4.6028895E-3,1.7872964E-3,-1.4438346E-3,3.7380804E-3,1.6145441E-3],"categories":[],"categories_nodes":[],"categories_segments":[],"categories_sizes":[],"default_left":[0,0,0,0,0,0,0,0,0,0,0,0,0,0,0],"id":56,"left_children":[1,3,5,7,9,11,13,-1,-1,-1,-1,-1,-1,-1,-1],"loss_changes":[1.5713103E2,9.438307E1,3.7290718E1,3.8420696E1,2.056717E1,2.3502312E1,1.0462669E1,0E0,0E0,0E0,0E0,0E0,0E0,0E0,0E0],"parents":[2147483647,0,0,1,1,2,2,3,3,4,4,5,5,6,6],"right_children":[2,4,6,8,10,12,14,-1,-1,-1,-1,-1,-1,-1,-1],"split_conditions":[2E1,1.4E1,0E0,9E0,1.06E1,9.5E0,9.7E0,-2.2866512E-3,2.977606E-4,-2.570131E-3,-4.6028895E-3,1.7872964E-3,-1.4438346E-3,3.7380804E-3,1.6145441E-3],"split_indices":[28,80,77,51,108,108,108,0,0,0,0,0,0,0,0],"split_type":[0,0,0,0,0,0,0,0,0,0,0,0,0,0,0],"sum_hessian":[6.2649453E3,4.39976E3,1.8651855E3,2.3450767E3,2.054683E3,9.3260657E2,9.32579E2,1.00868036E3,1.3363962E3,8.636433E2,1.1910397E3,3.7698273E2,5.5562384E2,4.7096817E2,4.6161084E2],"tree_param":{"num_deleted":"0","num_feature":"110","num_nodes":"15","size_leaf_vector":"1"}},{"base_weights":[1.1549068E-1,2.185904E-1,-1.2769656E-1,8.1436515E-2,3.7501281E-1,1.3721585E-2,-2.689821E-1,2.2866512E-3,-2.977605E-4,2.5701313E-3,4.60289E-3,-1.787296E-3,1.4438343E-3,-3.7380808E-3,-1.6145436E-3],"categories":[],"categories_nodes":[],"categories_segments":[],"categories_sizes":[],"default_left":[0,0,0,0,0,0,0,0,0,0,0,0,0,0,0],"id":57,"left_children":[1,3,5,7,9,11,13,-1,-1,-1,-1,-1,-1,-1,-1],"loss_changes":[1.5713101E2,9.43831E1,3.729071E1,3.8420696E1,2.0567139E1,2.3502304E1,1.0462669E1,0E0,0E0,0E0,0E0,0E0,0E0,0E0,0E0],"parents":[2147483647,0,0,1,1,2,2,3,3,4,4,5,5,6,6],"right_children":[2,4,6,8,10,12,14,-1,-1,-1,-1,-1,-1,-1,-1],"split_conditions":[2E1,1.4E1,0E0,9E0,1.06E1,9.5E0,9.7E0,2.2866512E-3,-2.977605E-4,2.5701313E-3,4.60289E-3,-1.787296E-3,1.4438343E-3,-3.7380808E-3,-1.6145436E-3],"split_indices":[28,80,77,51,108,108,108,0,0,0,0,0,0,0,0],"split_type":[0,0,0,0,0,0,0,0,0,0,0,0,0,0,0],"sum_hessian":[6.2649453E3,4.39976E3,1.8651855E3,2.3450767E3,2.054683E3,9.3260657E2,9.3257904E2,1.00868036E3,1.3363962E3,8.636433E2,1.1910397E3,3.7698273E2,5.556239E2,4.7096817E2,4.6161084E2],"tree_param":{"num_deleted":"0","num_feature":"110","num_nodes":"15","size_leaf_vector":"1"}},{"base_weights":[-1.1438045E-1,-2.7422434E-1,3.9553124E-2,-4.512731E-1,-1.6602325E-1,-1.734297E-1,1.4033818E-1,-4.4081017E-4,-4.737627E-3,-2.360527E-3,3.000571E-4,6.0654267E-5,-3.0823245E-3,3.0134486E-3,5.879772E-4],"categories":[],"categories_nodes":[],"categories_segments":[],"categories_sizes":[],"default_left":[0,0,0,0,0,0,0,0,0,0,0,0,0,0,0],"id":58,"left_children":[1,3,5,7,9,11,13,-1,-1,-1,-1,-1,-1,-1,-1],"loss_changes":[1.5412775E2,5.879245E1,6.853447E1,1.064801E1,2.6211754E1,2.4818487E1,2.8432003E1,0E0,0E0,0E0,0E0,0E0,0E0,0E0,0E0],"parents":[2147483647,0,0,1,1,2,2,3,3,4,4,5,5,6,6],"right_children":[2,4,6,8,10,12,14,-1,-1,-1,-1,-1,-1,-1,-1],"split_conditions":[1.5E1,1.02E1,-1.9E0,6.93E1,5.4E0,-3.7E0,9.6E0,-4.4081017E-4,-4.737627E-3,-2.360527E-3,3.000571E-4,6.0654267E-5,-3.0823245E-3,3.0134486E-3,5.879772E-4],"split_indices":[51,109,77,106,77,25,108,0,0,0,0,0,0,0,0],"split_type":[0,0,0,0,0,0,0,0,0,0,0,0,0,0,0],"sum_hessian":[6.2625537E3,3.0719126E3,3.190641E3,1.1640365E3,1.9078762E3,1.0246311E3,2.16601E3,6.108076E1,1.1029558E3,1.4055521E3,5.0232407E2,4.3987518E2,5.847559E2,7.2727167E2,1.4387384E3],"tree_param":{"num_deleted":"0","num_feature":"110","num_nodes":"15","size_leaf_vector":"1"}},{"base_weights":[1.1438046E-1,2.7422437E-1,-3.955312E-2,4.512731E-1,1.6602327E-1,1.7342968E-1,-1.4033818E-1,4.408099E-4,4.737627E-3,2.3605272E-3,-3.0005703E-4,-6.0654264E-5,3.0823245E-3,-3.013449E-3,-5.8797695E-4],"categories":[],"categories_nodes":[],"categories_segments":[],"categories_sizes":[],"default_left":[0,0,0,0,0,0,0,0,0,0,0,0,0,0,0],"id":59,"left_children":[1,3,5,7,9,11,13,-1,-1,-1,-1,-1,-1,-1,-1],"loss_changes":[1.5412775E2,5.8792465E1,6.853446E1,1.0648056E1,2.6211758E1,2.4818491E1,2.8432014E1,0E0,0E0,0E0,0E0,0E0,0E0,0E0,0E0],"parents":[2147483647,0,0,1,1,2,2,3,3,4,4,5,5,6,6],"right_children":[2,4,6,8,10,12,14,-1,-1,-1,-1,-1,-1,-1,-1],"split_conditions":[1.5E1,1.02E1,-1.9E0,6.93E1,5.4E0,-3.7E0,9.6E0,4.408099E-4,4.737627E-3,2.3605272E-3,-3.0005703E-4,-6.0654264E-5,3.0823245E-3,-3.013449E-3,-5.8797695E-4],"split_indices":[51,109,77,106,77,25,108,0,0,0,0,0,0,0,0],"split_type":[0,0,0,0,0,0,0,0,0,0,0,0,0,0,0],"sum_hessian":[6.2625537E3,3.0719126E3,3.190641E3,1.1640365E3,1.9078762E3,1.0246311E3,2.16601E3,6.1080757E1,1.1029557E3,1.4055521E3,5.0232407E2,4.3987518E2,5.847559E2,7.2727167E2,1.4387384E3],"tree_param":{"num_deleted":"0","num_feature":"110","num_nodes":"15","size_leaf_vector":"1"}},{"base_weights":[-1.1328381E-1,-2.1467817E-1,1.2578017E-1,-7.9614215E-2,-3.6888978E-1,-1.3381177E-2,2.64865E-1,-2.2461698E-3,2.9854648E-4,-2.5243538E-3,-4.5313844E-3,1.7622263E-3,-1.4210329E-3,3.6778946E-3,1.5940226E-3],"categories":[],"categories_nodes":[],"categories_segments":[],"categories_sizes":[],"default_left":[0,0,0,0,0,0,0,0,0,0,0,0,0,0,0],"id":60,"left_children":[1,3,5,7,9,11,13,-1,-1,-1,-1,-1,-1,-1,-1],"loss_changes":[1.5179292E2,9.154826E1,3.6106388E1,3.7232285E1,2.0023865E1,2.2804163E1,1.0068176E1,0E0,0E0,0E0,0E0,0E0,0E0,0E0,0E0],"parents":[2147483647,0,0,1,1,2,2,3,3,4,4,5,5,6,6],"right_children":[2,4,6,8,10,12,14,-1,-1,-1,-1,-1,-1,-1,-1],"split_conditions":[2E1,1.4E1,0E0,9E0,1.06E1,9.5E0,9.7E0,-2.2461698E-3,2.9854648E-4,-2.5243538E-3,-4.5313844E-3,1.7622263E-3,-1.4210329E-3,3.6778946E-3,1.5940226E-3],"split_indices":[28,80,77,51,108,108,108,0,0,0,0,0,0,0,0],"split_type":[0,0,0,0,0,0,0,0,0,0,0,0,0,0,0],"sum_hessian":[6.2600376E3,4.395762E3,1.8642753E3,2.3441711E3,2.0515913E3,9.323331E2,9.3194214E2,1.0079654E3,1.3362057E3,8.6286945E2,1.1887218E3,3.768603E2,5.5547284E2,4.7038806E2,4.6155408E2],"tree_param":{"num_deleted":"0","num_feature":"110","num_nodes":"15","size_leaf_vector":"1"}},{"base_weights":[1.1328382E-1,2.1467817E-1,-1.2578017E-1,7.9614215E-2,3.6888978E-1,1.3381178E-2,-2.64865E-1,2.2461698E-3,-2.985465E-4,2.5243536E-3,4.531385E-3,-1.7622263E-3,1.4210329E-3,-3.6778944E-3,-1.5940225E-3],"categories":[],"categories_nodes":[],"categories_segments":[],"categories_sizes":[],"default_left":[0,0,0,0,0,0,0,0,0,0,0,0,0,0,0],"id":61,"left_children":[1,3,5,7,9,11,13,-1,-1,-1,-1,-1,-1,-1,-1],"loss_changes":[1.5179291E2,9.154825E1,3.6106384E1,3.7232285E1,2.0023865E1,2.2804161E1,1.0068169E1,0E0,0E0,0E0,0E0,0E0,0E0,0E0,0E0],"parents":[2147483647,0,0,1,1,2,2,3,3,4,4,5,5,6,6],"right_children":[2,4,6,8,10,12,14,-1,-1,-1,-1,-1,-1,-1,-1],"split_conditions":[2E1,1.4E1,0E0,9E0,1.06E1,9.5E0,9.7E0,2.2461698E-3,-2.985465E-4,2.5243536E-3,4.531385E-3,-1.7622263E-3,1.4210329E-3,-3.6778944E-3,-1.5940225E-3],"split_indices":[28,80,77,51,108,108,108,0,0,0,0,0,0,0,0],"split_type":[0,0,0,0,0,0,0,0,0,0,0,0,0,0,0],"sum_hessian":[6.2600376E3,4.395762E3,1.8642753E3,2.3441711E3,2.0515913E3,9.323331E2,9.3194214E2,1.0079654E3,1.3362057E3,8.6286945E2,1.1887218E3,3.768603E2,5.5547284E2,4.7038806E2,4.6155408E2],"tree_param":{"num_deleted":"0","num_feature":"110","num_nodes":"15","size_leaf_vector":"1"}},{"base_weights":[-1.12196915E-1,8.807327E-2,-2.3097923E-1,-1.6518813E-1,1.6527021E-1,-3.279311E-1,-2.367143E-2,-8.414528E-5,-3.2489826E-3,3.1349945E-3,7.627743E-4,-4.4929064E-3,-2.469379E-3,5.9658854E-4,-2.32961E-3],"categories":[],"categories_nodes":[],"categories_segments":[],"categories_sizes":[],"default_left":[0,0,0,0,0,0,0,0,0,0,0,0,0,0,0],"id":62,"left_children":[1,3,5,7,9,11,13,-1,-1,-1,-1,-1,-1,-1,-1],"loss_changes":[1.489018E2,4.559595E1,7.895621E1,1.3642612E1,2.354609E1,2.6200134E1,2.1866E1,0E0,0E0,0E0,0E0,0E0,0E0,0E0,0E0],"parents":[2147483647,0,0,1,1,2,2,3,3,4,4,5,5,6,6],"right_children":[2,4,6,8,10,12,14,-1,-1,-1,-1,-1,-1,-1,-1],"split_conditions":[4.59E-1,3.71E-1,3E0,9.8E0,9.5E0,8E0,1.14E1,-8.414528E-5,-3.2489826E-3,3.1349945E-3,7.627743E-4,-4.4929064E-3,-2.469379E-3,5.9658854E-4,-2.32961E-3],"split_indices":[3,55,77,108,108,51,108,0,0,0,0,0,0,0,0],"split_type":[0,0,0,0,0,0,0,0,0,0,0,0,0,0,0],"sum_hessian":[6.2575327E3,2.3297576E3,3.9277751E3,5.439782E2,1.7857793E3,2.6757993E3,1.2519758E3,2.75044E2,2.689342E2,6.689806E2,1.1167987E3,1.0691887E3,1.6066105E3,8.959581E2,3.5601776E2],"tree_param":{"num_deleted":"0","num_feature":"110","num_nodes":"15","size_leaf_vector":"1"}},{"base_weights":[1.12196915E-1,-8.807326E-2,2.3097923E-1,1.6518816E-1,-1.652702E-1,3.279311E-1,2.3671426E-2,8.4145395E-5,3.248983E-3,-3.134994E-3,-7.6277443E-4,4.4929064E-3,2.469379E-3,-5.9658854E-4,2.32961E-3],"categories":[],"categories_nodes":[],"categories_segments":[],"categories_sizes":[],"default_left":[0,0,0,0,0,0,0,0,0,0,0,0,0,0,0],"id":63,"left_children":[1,3,5,7,9,11,13,-1,-1,-1,-1,-1,-1,-1,-1],"loss_changes":[1.489018E2,4.5595955E1,7.895621E1,1.3642617E1,2.354607E1,2.6200134E1,2.1865997E1,0E0,0E0,0E0,0E0,0E0,0E0,0E0,0E0],"parents":[2147483647,0,0,1,1,2,2,3,3,4,4,5,5,6,6],"right_children":[2,4,6,8,10,12,14,-1,-1,-1,-1,-1,-1,-1,-1],"split_conditions":[4.59E-1,3.71E-1,3E0,9.8E0,9.5E0,8E0,1.14E1,8.4145395E-5,3.248983E-3,-3.134994E-3,-7.6277443E-4,4.4929064E-3,2.469379E-3,-5.9658854E-4,2.32961E-3],"split_indices":[3,55,77,108,108,51,108,0,0,0,0,0,0,0,0],"split_type":[0,0,0,0,0,0,0,0,0,0,0,0,0,0,0],"sum_hessian":[6.2575327E3,2.3297576E3,3.9277751E3,5.439782E2,1.7857793E3,2.6757993E3,1.2519758E3,2.75044E2,2.689342E2,6.6898065E2,1.1167987E3,1.0691887E3,1.6066105E3,8.959581E2,3.5601776E2],"tree_param":{"num_deleted":"0","num_feature":"110","num_nodes":"15","size_leaf_vector":"1"}},{"base_weights":[-1.11120224E-1,-2.6703027E-1,3.8862865E-2,-4.4168472E-1,-1.60521E-1,-8.165474E-2,2.0957235E-1,-3.9203544E-4,-4.6395785E-3,-2.2913574E-3,3.1354267E-4,1.1602804E-3,-1.8606617E-3,8.5549726E-4,3.0294294E-3],"categories":[],"categories_nodes":[],"categories_segments":[],"categories_sizes":[],"default_left":[0,0,0,0,0,0,0,0,0,0,0,0,0,0,0],"id":64,"left_children":[1,3,5,7,9,11,13,-1,-1,-1,-1,-1,-1,-1,-1],"loss_changes":[1.4630185E2,5.6992798E1,6.563678E1,1.0393875E1,2.511493E1,3.8625893E1,1.5261982E1,0E0,0E0,0E0,0E0,0E0,0E0,0E0,0E0],"parents":[2147483647,0,0,1,1,2,2,3,3,4,4,5,5,6,6],"right_children":[2,4,6,8,10,12,14,-1,-1,-1,-1,-1,-1,-1,-1],"split_conditions":[1.5E1,1.02E1,5.45E-1,6.93E1,5.4E0,-4.7E0,1.09E1,-3.9203544E-4,-4.6395785E-3,-2.2913574E-3,3.1354267E-4,1.1602804E-3,-1.8606617E-3,8.5549726E-4,3.0294294E-3],"split_indices":[51,109,55,106,77,25,109,0,0,0,0,0,0,0,0],"split_type":[0,0,0,0,0,0,0,0,0,0,0,0,0,0,0],"sum_hessian":[6.255084E3,3.0665605E3,3.1885237E3,1.1604696E3,1.906091E3,1.8693325E3,1.3191912E3,6.099713E1,1.0994724E3,1.4038713E3,5.0221957E2,6.4605035E2,1.2232822E3,5.674169E2,7.517743E2],"tree_param":{"num_deleted":"0","num_feature":"110","num_nodes":"15","size_leaf_vector":"1"}},{"base_weights":[1.1112024E-1,2.670303E-1,-3.886285E-2,4.4168472E-1,1.6052103E-1,8.165476E-2,-2.0957233E-1,3.9203517E-4,4.6395785E-3,2.2913578E-3,-3.1354278E-4,-1.1602804E-3,1.8606619E-3,-8.554972E-4,-3.029429E-3],"categories":[],"categories_nodes":[],"categories_segments":[],"categories_sizes":[],"default_left":[0,0,0,0,0,0,0,0,0,0,0,0,0,0,0],"id":65,"left_children":[1,3,5,7,9,11,13,-1,-1,-1,-1,-1,-1,-1,-1],"loss_changes":[1.4630183E2,5.6992813E1,6.563678E1,1.0393875E1,2.5114944E1,3.86259E1,1.52619705E1,0E0,0E0,0E0,0E0,0E0,0E0,0E0,0E0],"parents":[2147483647,0,0,1,1,2,2,3,3,4,4,5,5,6,6],"right_children":[2,4,6,8,10,12,14,-1,-1,-1,-1,-1,-1,-1,-1],"split_conditions":[1.5E1,1.02E1,5.45E-1,6.93E1,5.4E0,-4.7E0,1.09E1,3.9203517E-4,4.6395785E-3,2.2913578E-3,-3.1354278E-4,-1.1602804E-3,1.8606619E-3,-8.554972E-4,-3.029429E-3],"split_indices":[51,109,55,106,77,25,109,0,0,0,0,0,0,0,0],"split_type":[0,0,0,0,0,0,0,0,0,0,0,0,0,0,0],"sum_hessian":[6.2550845E3,3.0665605E3,3.1885237E3,1.1604696E3,1.906091E3,1.8693326E3,1.3191912E3,6.099713E1,1.0994724E3,1.4038713E3,5.0221957E2,6.4605035E2,1.2232822E3,5.674169E2,7.5177435E2],"tree_param":{"num_deleted":"0","num_feature":"110","num_nodes":"15","size_leaf_vector":"1"}},{"base_weights":[-1.1005482E-1,-2.0898627E-1,1.23034745E-1,-7.684565E-2,-3.6010957E-1,-7.6930106E-2,2.1595564E-1,-2.185133E-3,3.000707E-4,-2.4557272E-3,-4.431025E-3,1.1214489E-3,-2.0317358E-3,3.5078125E-3,1.2051999E-3],"categories":[],"categories_nodes":[],"categories_segments":[],"categories_sizes":[],"default_left":[0,0,0,0,0,0,0,0,0,0,0,0,0,0,0],"id":66,"left_children":[1,3,5,7,9,11,13,-1,-1,-1,-1,-1,-1,-1,-1],"loss_changes":[1.4423186E2,8.764986E1,3.465114E1,3.548403E1,1.9357971E1,1.4156018E1,1.6336075E1,0E0,0E0,0E0,0E0,0E0,0E0,0E0,0E0],"parents":[2147483647,0,0,1,1,2,2,3,3,4,4,5,5,6,6],"right_children":[2,4,6,8,10,12,14,-1,-1,-1,-1,-1,-1,-1,-1],"split_conditions":[2E1,1.4E1,-2E0,9E0,1.06E1,9.5E0,9.5E0,-2.185133E-3,3.000707E-4,-2.4557272E-3,-4.431025E-3,1.1214489E-3,-2.0317358E-3,3.5078125E-3,1.2051999E-3],"split_indices":[28,80,77,51,108,108,108,0,0,0,0,0,0,0,0],"split_type":[0,0,0,0,0,0,0,0,0,0,0,0,0,0,0],"sum_hessian":[6.25255E3,4.3895664E3,1.8629836E3,2.3426694E3,2.0468969E3,5.911046E2,1.271879E3,1.00679443E3,1.3358749E3,8.6167566E2,1.1852213E3,2.3670418E2,3.5440042E2,5.260427E2,7.458363E2],"tree_param":{"num_deleted":"0","num_feature":"110","num_nodes":"15","size_leaf_vector":"1"}},{"base_weights":[1.1005481E-1,2.0898627E-1,-1.23034745E-1,7.684566E-2,3.6010954E-1,7.693013E-2,-2.1595567E-1,2.1851333E-3,-3.0007068E-4,2.455727E-3,4.431025E-3,-1.1214489E-3,2.031736E-3,-3.5078127E-3,-1.2052E-3],"categories":[],"categories_nodes":[],"categories_segments":[],"categories_sizes":[],"default_left":[0,0,0,0,0,0,0,0,0,0,0,0,0,0,0],"id":67,"left_children":[1,3,5,7,9,11,13,-1,-1,-1,-1,-1,-1,-1,-1],"loss_changes":[1.4423187E2,8.7649826E1,3.4651146E1,3.548403E1,1.9358002E1,1.4156021E1,1.6336079E1,0E0,0E0,0E0,0E0,0E0,0E0,0E0,0E0],"parents":[2147483647,0,0,1,1,2,2,3,3,4,4,5,5,6,6],"right_children":[2,4,6,8,10,12,14,-1,-1,-1,-1,-1,-1,-1,-1],"split_conditions":[2E1,1.4E1,-2E0,9E0,1.06E1,9.5E0,9.5E0,2.1851333E-3,-3.0007068E-4,2.455727E-3,4.431025E-3,-1.1214489E-3,2.031736E-3,-3.5078127E-3,-1.2052E-3],"split_indices":[28,80,77,51,108,108,108,0,0,0,0,0,0,0,0],"split_type":[0,0,0,0,0,0,0,0,0,0,0,0,0,0,0],"sum_hessian":[6.25255E3,4.3895664E3,1.8629836E3,2.3426694E3,2.0468969E3,5.911046E2,1.271879E3,1.00679443E3,1.3358749E3,8.616756E2,1.1852213E3,2.367042E2,3.5440042E2,5.260427E2,7.458363E2],"tree_param":{"num_deleted":"0","num_feature":"110","num_nodes":"15","size_leaf_vector":"1"}},{"base_weights":[-1.0900217E-1,-2.0700005E-1,1.2184176E-1,-7.609036E-2,-3.568205E-1,-5.945066E-3,2.656003E-1,-2.0258469E-3,4.1478034E-4,-2.432264E-3,-4.391908E-3,1.7548986E-3,-1.3231306E-3,4.0308605E-3,1.8740149E-3],"categories":[],"categories_nodes":[],"categories_segments":[],"categories_sizes":[],"default_left":[0,0,0,0,0,0,0,0,0,0,0,0,0,0,0],"id":68,"left_children":[1,3,5,7,9,11,13,-1,-1,-1,-1,-1,-1,-1,-1],"loss_changes":[1.4143391E2,8.604291E1,3.4233955E1,3.4857254E1,1.9038422E1,2.2664291E1,9.352684E0,0E0,0E0,0E0,0E0,0E0,0E0,0E0,0E0],"parents":[2147483647,0,0,1,1,2,2,3,3,4,4,5,5,6,6],"right_children":[2,4,6,8,10,12,14,-1,-1,-1,-1,-1,-1,-1,-1],"split_conditions":[2E1,1.4E1,5.14E-1,1E1,1.06E1,9.5E0,7.17E1,-2.0258469E-3,4.1478034E-4,-2.432264E-3,-4.391908E-3,1.7548986E-3,-1.3231306E-3,4.0308605E-3,1.8740149E-3],"split_indices":[28,80,55,51,108,108,106,0,0,0,0,0,0,0,0],"split_type":[0,0,0,0,0,0,0,0,0,0,0,0,0,0,0],"sum_hessian":[6.249878E3,4.3874297E3,1.8624485E3,2.3422942E3,2.0451353E3,9.8650433E2,8.759441E2,1.1279673E3,1.214327E3,8.612995E2,1.1838357E3,4.0484818E2,5.816562E2,3.1607678E2,5.598673E2],"tree_param":{"num_deleted":"0","num_feature":"110","num_nodes":"15","size_leaf_vector":"1"}},{"base_weights":[1.09002165E-1,2.0700005E-1,-1.21841766E-1,7.6090366E-2,3.568205E-1,5.9450753E-3,-2.6560032E-1,2.0258469E-3,-4.1478028E-4,2.4322642E-3,4.391908E-3,-1.7548986E-3,1.3231306E-3,-4.030861E-3,-1.8740151E-3],"categories":[],"categories_nodes":[],"categories_segments":[],"categories_sizes":[],"default_left":[0,0,0,0,0,0,0,0,0,0,0,0,0,0,0],"id":69,"left_children":[1,3,5,7,9,11,13,-1,-1,-1,-1,-1,-1,-1,-1],"loss_changes":[1.4143393E2,8.604288E1,3.423397E1,3.4857258E1,1.9038391E1,2.2664291E1,9.352688E0,0E0,0E0,0E0,0E0,0E0,0E0,0E0,0E0],"parents":[2147483647,0,0,1,1,2,2,3,3,4,4,5,5,6,6],"right_children":[2,4,6,8,10,12,14,-1,-1,-1,-1,-1,-1,-1,-1],"split_conditions":[2E1,1.4E1,5.14E-1,1E1,1.06E1,9.5E0,7.17E1,2.0258469E-3,-4.1478028E-4,2.4322642E-3,4.391908E-3,-1.7548986E-3,1.3231306E-3,-4.030861E-3,-1.8740151E-3],"split_indices":[28,80,55,51,108,108,106,0,0,0,0,0,0,0,0],"split_type":[0,0,0,0,0,0,0,0,0,0,0,0,0,0,0],"sum_hessian":[6.249878E3,4.3874297E3,1.8624485E3,2.3422942E3,2.0451351E3,9.8650433E2,8.7594415E2,1.1279673E3,1.214327E3,8.612995E2,1.1838357E3,4.0484818E2,5.816562E2,3.1607678E2,5.598674E2],"tree_param":{"num_deleted":"0","num_feature":"110","num_nodes":"15","size_leaf_vector":"1"}},{"base_weights":[-1.0795944E-1,-2.6003566E-1,3.816615E-2,-3.3961886E-1,-3.3187374E-2,-1.804631E-1,1.2872408E-1,-2.805305E-3,-5.1794676E-3,1.2986427E-3,-1.3248654E-3,7.6252814E-5,-3.2306376E-3,2.8111935E-3,5.1936763E-4],"categories":[],"categories_nodes":[],"categories_segments":[],"categories_sizes":[],"default_left":[0,0,0,0,0,0,0,0,0,0,0,0,0,0,0],"id":70,"left_children":[1,3,5,7,9,11,13,-1,-1,-1,-1,-1,-1,-1,-1],"loss_changes":[1.3885863E2,5.526581E1,6.3127518E1,2.3737823E1,1.2910142E1,2.5052378E1,2.6365974E1,0E0,0E0,0E0,0E0,0E0,0E0,0E0,0E0],"parents":[2147483647,0,0,1,1,2,2,3,3,4,4,5,5,6,6],"right_children":[2,4,6,8,10,12,14,-1,-1,-1,-1,-1,-1,-1,-1],"split_conditions":[1.5E1,1.11E1,-2.3E0,2.3E1,3.2E0,-3.7E0,9.6E0,-2.805305E-3,-5.1794676E-3,1.2986427E-3,-1.3248654E-3,7.6252814E-5,-3.2306376E-3,2.8111935E-3,5.1936763E-4],"split_indices":[51,109,77,80,25,25,108,0,0,0,0,0,0,0,0],"split_type":[0,0,0,0,0,0,0,0,0,0,0,0,0,0,0],"sum_hessian":[6.2471895E3,3.060881E3,3.1863083E3,2.265573E3,7.9530804E2,9.3294806E2,2.2533604E3,1.7036481E3,5.61925E2,3.009057E2,4.9440234E2,4.027166E2,5.3023145E2,7.540938E2,1.4992666E3],"tree_param":{"num_deleted":"0","num_feature":"110","num_nodes":"15","size_leaf_vector":"1"}},{"base_weights":[1.07959434E-1,2.6003566E-1,-3.8166154E-2,3.3961886E-1,3.318737E-2,1.8046309E-1,-1.2872408E-1,2.8053047E-3,5.1794676E-3,-1.2986431E-3,1.3248655E-3,-7.625283E-5,3.2306372E-3,-2.811193E-3,-5.193677E-4],"categories":[],"categories_nodes":[],"categories_segments":[],"categories_sizes":[],"default_left":[0,0,0,0,0,0,0,0,0,0,0,0,0,0,0],"id":71,"left_children":[1,3,5,7,9,11,13,-1,-1,-1,-1,-1,-1,-1,-1],"loss_changes":[1.3885863E2,5.5265823E1,6.3127506E1,2.3737793E1,1.2910146E1,2.5052374E1,2.6365967E1,0E0,0E0,0E0,0E0,0E0,0E0,0E0,0E0],"parents":[2147483647,0,0,1,1,2,2,3,3,4,4,5,5,6,6],"right_children":[2,4,6,8,10,12,14,-1,-1,-1,-1,-1,-1,-1,-1],"split_conditions":[1.5E1,1.11E1,-2.3E0,2.3E1,3.2E0,-3.7E0,9.6E0,2.8053047E-3,5.1794676E-3,-1.2986431E-3,1.3248655E-3,-7.625283E-5,3.2306372E-3,-2.811193E-3,-5.193677E-4],"split_indices":[51,109,77,80,25,25,108,0,0,0,0,0,0,0,0],"split_type":[0,0,0,0,0,0,0,0,0,0,0,0,0,0,0],"sum_hessian":[6.2471895E3,3.060881E3,3.1863083E3,2.265573E3,7.9530804E2,9.3294806E2,2.2533604E3,1.7036481E3,5.61925E2,3.0090573E2,4.9440234E2,4.0271664E2,5.3023145E2,7.540938E2,1.4992666E3],"tree_param":{"num_deleted":"0","num_feature":"110","num_nodes":"15","size_leaf_vector":"1"}},{"base_weights":[-1.0693066E-1,-2.0331873E-1,1.2000779E-1,-7.441148E-2,-3.51041E-1,-8.249701E-2,2.0845646E-1,-2.1246686E-3,2.961297E-4,-2.387952E-3,-4.3253037E-3,5.341431E-4,-1.7704479E-3,3.5615985E-3,8.503876E-4],"categories":[],"categories_nodes":[],"categories_segments":[],"categories_sizes":[],"default_left":[0,0,0,0,0,0,0,0,0,0,0,0,0,0,0],"id":72,"left_children":[1,3,5,7,9,11,13,-1,-1,-1,-1,-1,-1,-1,-1],"loss_changes":[1.366358E2,8.345387E1,3.3376022E1,3.364433E1,1.857994E1,7.2940965E0,2.3604889E1,0E0,0E0,0E0,0E0,0E0,0E0,0E0,0E0],"parents":[2147483647,0,0,1,1,2,2,3,3,4,4,5,5,6,6],"right_children":[2,4,6,8,10,12,14,-1,-1,-1,-1,-1,-1,-1,-1],"split_conditions":[2E1,1.4E1,9.9E0,9E0,1.06E1,9.5E0,9.6E0,-2.1246686E-3,2.961297E-4,-2.387952E-3,-4.3253037E-3,5.341431E-4,-1.7704479E-3,3.5615985E-3,8.503876E-4],"split_indices":[28,80,109,51,108,108,108,0,0,0,0,0,0,0,0],"split_type":[0,0,0,0,0,0,0,0,0,0,0,0,0,0,0],"sum_hessian":[6.244332E3,4.382884E3,1.861448E3,2.3412964E3,2.0415876E3,5.65893E2,1.2955549E3,1.00563367E3,1.3356627E3,8.603913E2,1.1811963E3,2.3234084E2,3.3355215E2,5.888942E2,7.0666077E2],"tree_param":{"num_deleted":"0","num_feature":"110","num_nodes":"15","size_leaf_vector":"1"}},{"base_weights":[1.0693066E-1,2.0331873E-1,-1.2000778E-1,7.441148E-2,3.5104096E-1,8.249701E-2,-2.0845644E-1,2.1246686E-3,-2.9612955E-4,2.387952E-3,4.3253037E-3,-5.341433E-4,1.7704479E-3,-3.5615985E-3,-8.5038744E-4],"categories":[],"categories_nodes":[],"categories_segments":[],"categories_sizes":[],"default_left":[0,0,0,0,0,0,0,0,0,0,0,0,0,0,0],"id":73,"left_children":[1,3,5,7,9,11,13,-1,-1,-1,-1,-1,-1,-1,-1],"loss_changes":[1.3663577E2,8.345386E1,3.337602E1,3.3644318E1,1.857994E1,7.294099E0,2.3604889E1,0E0,0E0,0E0,0E0,0E0,0E0,0E0,0E0],"parents":[2147483647,0,0,1,1,2,2,3,3,4,4,5,5,6,6],"right_children":[2,4,6,8,10,12,14,-1,-1,-1,-1,-1,-1,-1,-1],"split_conditions":[2E1,1.4E1,9.9E0,9E0,1.06E1,9.5E0,9.6E0,2.1246686E-3,-2.9612955E-4,2.387952E-3,4.3253037E-3,-5.341433E-4,1.7704479E-3,-3.5615985E-3,-8.5038744E-4],"split_indices":[28,80,109,51,108,108,108,0,0,0,0,0,0,0,0],"split_type":[0,0,0,0,0,0,0,0,0,0,0,0,0,0,0],"sum_hessian":[6.244332E3,4.382884E3,1.861448E3,2.3412964E3,2.0415876E3,5.65893E2,1.2955549E3,1.00563367E3,1.3356627E3,8.6039136E2,1.1811963E3,2.3234084E2,3.3355215E2,5.888942E2,7.0666077E2],"tree_param":{"num_deleted":"0","num_feature":"110","num_nodes":"15","size_leaf_vector":"1"}},{"base_weights":[-1.0590925E-1,7.6407395E-2,-2.2376202E-1,-1.3408038E-1,1.620179E-1,-3.4934822E-1,-7.307218E-2,9.225145E-4,-2.560043E-3,3.0143745E-3,7.171472E-4,-2.8808755E-3,-4.719229E-3,-2.1191246E-3,2.6996763E-4],"categories":[],"categories_nodes":[],"categories_segments":[],"categories_sizes":[],"default_left":[0,0,0,0,0,0,0,0,0,0,0,0,0,0,0],"id":74,"left_children":[1,3,5,7,9,11,13,-1,-1,-1,-1,-1,-1,-1,-1],"loss_changes":[1.3414865E2,4.420156E1,7.173404E1,1.9599941E1,2.1926682E1,1.5392258E1,2.3971188E1,0E0,0E0,0E0,0E0,0E0,0E0,0E0,0E0],"parents":[2147483647,0,0,1,1,2,2,3,3,4,4,5,5,6,6],"right_children":[2,4,6,8,10,12,14,-1,-1,-1,-1,-1,-1,-1,-1],"split_conditions":[4.7E-1,-2.4E0,1.06E1,9.5E0,9.6E0,2.3E1,8E0,9.225145E-4,-2.560043E-3,3.0143745E-3,7.171472E-4,-2.8808755E-3,-4.719229E-3,-2.1191246E-3,2.6996763E-4],"split_indices":[3,77,109,108,108,80,51,0,0,0,0,0,0,0,0],"split_type":[0,0,0,0,0,0,0,0,0,0,0,0,0,0,0],"sum_hessian":[6.24159E3,2.4507166E3,3.7908735E3,7.084087E2,1.7423077E3,2.0669453E3,1.7239282E3,2.4809827E2,4.603104E2,6.839757E2,1.058332E3,1.3803975E3,6.865479E2,7.2161224E2,1.0023159E3],"tree_param":{"num_deleted":"0","num_feature":"110","num_nodes":"15","size_leaf_vector":"1"}},{"base_weights":[1.0590924E-1,-7.640741E-2,2.2376202E-1,1.3408037E-1,-1.6201791E-1,3.4934822E-1,7.307219E-2,-9.2251453E-4,2.560043E-3,-3.014375E-3,-7.171474E-4,2.8808755E-3,4.719229E-3,2.1191249E-3,-2.6996766E-4],"categories":[],"categories_nodes":[],"categories_segments":[],"categories_sizes":[],"default_left":[0,0,0,0,0,0,0,0,0,0,0,0,0,0,0],"id":75,"left_children":[1,3,5,7,9,11,13,-1,-1,-1,-1,-1,-1,-1,-1],"loss_changes":[1.3414867E2,4.4201565E1,7.173401E1,1.9599941E1,2.192667E1,1.5392242E1,2.3971188E1,0E0,0E0,0E0,0E0,0E0,0E0,0E0,0E0],"parents":[2147483647,0,0,1,1,2,2,3,3,4,4,5,5,6,6],"right_children":[2,4,6,8,10,12,14,-1,-1,-1,-1,-1,-1,-1,-1],"split_conditions":[4.7E-1,-2.4E0,1.06E1,9.5E0,9.6E0,2.3E1,8E0,-9.2251453E-4,2.560043E-3,-3.014375E-3,-7.171474E-4,2.8808755E-3,4.719229E-3,2.1191249E-3,-2.6996766E-4],"split_indices":[3,77,109,108,108,80,51,0,0,0,0,0,0,0,0],"split_type":[0,0,0,0,0,0,0,0,0,0,0,0,0,0,0],"sum_hessian":[6.24159E3,2.4507163E3,3.7908735E3,7.084087E2,1.7423077E3,2.0669453E3,1.7239281E3,2.4809827E2,4.603104E2,6.839757E2,1.058332E3,1.3803975E3,6.865479E2,7.2161224E2,1.0023159E3],"tree_param":{"num_deleted":"0","num_feature":"110","num_nodes":"15","size_leaf_vector":"1"}},{"base_weights":[-1.0490106E-1,-2.5335217E-1,3.756817E-2,-4.2340368E-1,-1.5013446E-1,-7.807003E-2,2.013601E-1,-2.6385943E-4,-4.4545303E-3,-2.1697327E-3,3.643733E-4,1.1060529E-3,-1.7778155E-3,7.859514E-4,2.9381157E-3],"categories":[],"categories_nodes":[],"categories_segments":[],"categories_sizes":[],"default_left":[0,0,0,0,0,0,0,0,0,0,0,0,0,0,0],"id":76,"left_children":[1,3,5,7,9,11,13,-1,-1,-1,-1,-1,-1,-1,-1],"loss_changes":[1.3197668E2,5.357306E1,6.033878E1,1.0087509E1,2.3740482E1,3.5154408E1,1.4939194E1,0E0,0E0,0E0,0E0,0E0,0E0,0E0,0E0],"parents":[2147483647,0,0,1,1,2,2,3,3,4,4,5,5,6,6],"right_children":[2,4,6,8,10,12,14,-1,-1,-1,-1,-1,-1,-1,-1],"split_conditions":[1.5E1,1.02E1,5.45E-1,6.93E1,5.4E0,-4.7E0,1.09E1,-2.6385943E-4,-4.4545303E-3,-2.1697327E-3,3.643733E-4,1.1060529E-3,-1.7778155E-3,7.859514E-4,2.9381157E-3],"split_indices":[51,109,55,106,77,25,109,0,0,0,0,0,0,0,0],"split_type":[0,0,0,0,0,0,0,0,0,0,0,0,0,0,0],"sum_hessian":[6.2386665E3,3.0548125E3,3.183854E3,1.1526749E3,1.9021377E3,1.8665679E3,1.317286E3,6.076405E1,1.0919109E3,1.4003157E3,5.01822E2,6.4533954E2,1.2212284E3,5.666671E2,7.506189E2],"tree_param":{"num_deleted":"0","num_feature":"110","num_nodes":"15","size_leaf_vector":"1"}},{"base_weights":[1.0490105E-1,2.5335217E-1,-3.756818E-2,4.2340365E-1,1.5013447E-1,7.807003E-2,-2.0136014E-1,2.6385917E-4,4.4545303E-3,2.1697327E-3,-3.643731E-4,-1.1060528E-3,1.7778155E-3,-7.859515E-4,-2.9381162E-3],"categories":[],"categories_nodes":[],"categories_segments":[],"categories_sizes":[],"default_left":[0,0,0,0,0,0,0,0,0,0,0,0,0,0,0],